function [Y,Xf,Af] = neural_function(X,~,~)
%NEURAL_FUNCTION neural network simulation function.
%
% Auto-generated by MATLAB, 04-Dec-2020 14:38:40.
% 
% [Y] = neural_function(X,~,~) takes these arguments:
% 
%   X = 1xTS cell, 1 inputs over TS timesteps
%   Each X{1,ts} = 15xQ matrix, input #1 at timestep ts.
% 
% and returns:
%   Y = 1xTS cell of 1 outputs over TS timesteps.
%   Each Y{1,ts} = 2xQ matrix, output #1 at timestep ts.
% 
% where Q is number of samples (or series) and TS is the number of timesteps.

%#ok<*RPMT0>

% ===== NEURAL NETWORK CONSTANTS =====

% Input 1
x1_step1.xoffset = [0.200011437481734;0.000287032703115897;0;0;0;0;-1.30256813748516e-05;0;-0.00594070155344859;-1.30256813748516e-05;0;-0.00594070155344859;-1.30256813748516e-05;0;-0.00594070155344859];
x1_step1.gain = [20.6580156213491;20.1115684549846;6.73795064545574;20.0536867183442;6.73795064545574;20.0536867183442;37249.8760295359;5.75597622331691;17.0020476160425;37249.8760295359;5.75597622331691;17.0020476160425;37249.8760295359;5.75597622331691;17.0020476160425];
x1_step1.ymin = -1;

% Layer 1
b1 = [-0.044489622116088867188;0.11098226159811019897;-0.028768265619874000549;-0.15081155300140380859;0.011718733236193656921;-0.020698234438896179199;0.10351222008466720581;0.17689792811870574951;-0.087240017950534820557;0.047048125416040420532;-0.085425585508346557617;0.036096852272748947144;0.0091985221952199935913;0.027488881722092628479;0.1552406996488571167;0.080781981348991394043;0.078912332653999328613;0.057626944035291671753;0.081638343632221221924;0.07377354055643081665;0.018050450831651687622;-0.072987027466297149658;0.00090168806491419672966;0.19707868993282318115;-0.31365701556205749512;-0.017576185986399650574;0.033029947429895401001;-0.026021583005785942078;0.11877859383821487427;0.027602519840002059937;-0.055234353989362716675;-0.021500546485185623169;0.055702779442071914673;0.044797074049711227417;0.13911828398704528809;-0.018225865438580513;0.17347985506057739258;-0.055378537625074386597;0.070296764373779296875;0.053446397185325622559;-0.076450616121292114258;0.014918758533895015717;-0.099677480757236480713;-0.056149557232856750488;0.063460849225521087646;-0.013017903082072734833;0.11169173568487167358;-0.0048570889048278331757;0.0024018064141273498535;0.062639072537422180176];
IW1_1 = [-0.20463193953037261963 -0.19543521106243133545 0.21350623667240142822 0.15423670411109924316 0.22288349270820617676 0.14491796493530273438 -0.07062686234712600708 0.23595741391181945801 -0.2858816683292388916 0.16424874961376190186 -0.06898759305477142334 0.10243205726146697998 0.0035312215331941843033 -0.47624656558036804199 0.033169887959957122803;0.064269684255123138428 0.33215028047561645508 -0.12233751267194747925 -0.037933867424726486206 -0.048530507832765579224 0.14234739542007446289 -0.076737605035305023193 -0.45700627565383911133 -0.29194781184196472168 0.26635581254959106445 0.23050044476985931396 -0.079000972211360931396 0.22093877196311950684 0.14409223198890686035 -0.17240220308303833008;-0.12697198987007141113 -0.22115899622440338135 -0.15141507983207702637 0.00017434325127396732569 0.22661490738391876221 -0.26192271709442138672 0.083021752536296844482 0.26016393303871154785 0.38207930326461791992 0.098120361566543579102 0.067440651357173919678 0.013950382359325885773 0.19361136853694915771 -0.39993900060653686523 0.10976252704858779907;-0.097175538539886474609 -0.02244209684431552887 -0.47342020273208618164 0.15817803144454956055 -0.27698025107383728027 0.082592248916625976562 -0.059540733695030212402 0.11399294435977935791 0.15603882074356079102 -0.026307353749871253967 0.60755419731140136719 -0.24402013421058654785 -0.15503141283988952637 0.49771040678024291992 -0.11075696349143981934;0.12650297582149505615 0.022199239581823348999 -0.31660646200180053711 -0.04954001307487487793 -0.18059222400188446045 0.070304602384567260742 0.14537039399147033691 0.022159699350595474243 0.22716723382472991943 0.39215797185897827148 0.28284350037574768066 0.12527257204055786133 0.40842682123184204102 -0.20353372395038604736 -0.33342197537422180176;0.23458406329154968262 0.0833242759108543396 0.098352007567882537842 0.094856679439544677734 0.2072315216064453125 0.00077854259870946407318 0.63287204504013061523 -0.52681195735931396484 0.35959962010383605957 0.46973204612731933594 -0.090120948851108551025 -0.2556743621826171875 0.58134680986404418945 -0.45396143198013305664 -0.2896728515625;0.075737208127975463867 -0.13415546715259552002 0.29702097177505493164 -0.22175295650959014893 -0.20037139952182769775 0.27562785148620605469 -0.053712278604507446289 -0.30458170175552368164 0.061288584023714065552 0.04141817241907119751 0.003246607491746544838 0.032537620514631271362 -0.026343211531639099121 -0.029957812279462814331 0.034419979900121688843;0.26662686467170715332 0.022897874936461448669 0.45891085267066955566 -0.018578715622425079346 0.05767950788140296936 -0.29164576530456542969 0.56328219175338745117 -0.33279493451118469238 -0.13527692854404449463 0.54701071977615356445 -0.68009364604949951172 0.22598089277744293213 0.70415598154067993164 -0.65690845251083374023 0.24172511696815490723;0.18294724822044372559 0.22997941076755523682 0.15547844767570495605 -0.34611457586288452148 -0.10008037835359573364 0.1767521202564239502 -0.31977185606956481934 0.34123378992080688477 0.050130113959312438965 -0.33460083603858947754 0.10305580496788024902 -0.018789794296026229858 0.23365785181522369385 -0.28686240315437316895 -0.22494155168533325195;0.011047991923987865448 0.14606383442878723145 -0.10711348801851272583 -0.36199596524238586426 -0.3129164278507232666 0.087026350200176239014 -0.0086419889703392982483 0.27511802315711975098 0.016511842608451843262 -0.48581835627555847168 0.40565311908721923828 0.093091018497943878174 -0.49321329593658447266 -0.069842301309108734131 0.21298766136169433594;-0.021428823471069335938 0.26186901330947875977 -0.20320959389209747314 -0.03713911399245262146 0.24257279932498931885 -0.046773862093687057495 0.1328128129243850708 0.070366285741329193115 -0.096035271883010864258 0.21657535433769226074 -0.086126692593097686768 -0.20856307446956634521 0.095151685178279876709 -0.020656598731875419617 0.089518919587135314941;0.026502011343836784363 -0.34301480650901794434 0.21125203371047973633 0.12852819263935089111 -0.072785176336765289307 0.10637783259153366089 -0.19986593723297119141 0.35212522745132446289 -0.11483938246965408325 -0.070819705724716186523 -0.16906371712684631348 0.13098506629467010498 -0.0013408164959400892258 -0.35341843962669372559 0.13782724738121032715;0.12071480602025985718 0.24267198145389556885 -0.06259647756814956665 -0.11894269287586212158 -0.067070230841636657715 -0.10225545614957809448 0.055043838918209075928 -0.24282640218734741211 0.2496166527271270752 0.3312110602855682373 0.10128109902143478394 -0.10704674571752548218 0.024221131578087806702 0.061240497976541519165 -0.17246077954769134521;0.1052703559398651123 -0.1348813474178314209 0.18271164596080780029 0.23826587200164794922 0.14674191176891326904 0.21349172294139862061 0.35371890664100646973 -0.4659182429313659668 0.16938002407550811768 -0.033045254647731781006 -0.30980637669563293457 -0.24097284674644470215 0.1131208762526512146 0.19479796290397644043 -0.37851321697235107422;0.060494475066661834717 0.14276827871799468994 -0.17966170608997344971 -0.33974504470825195312 0.004439612850546836853 0.28817281126976013184 -0.066058270633220672607 -0.15716388821601867676 -0.26746764779090881348 -0.099835328757762908936 0.13779790699481964111 0.0020995156373828649521 0.24034677445888519287 -0.05985051766037940979 0.1638609468936920166;-0.278003692626953125 0.32623025774955749512 0.28221136331558227539 -0.1307404935359954834 -0.088179223239421844482 0.0066419732756912708282 -0.23965495824813842773 0.31182312965393066406 -0.36122903227806091309 -0.14024031162261962891 -0.087849989533424377441 0.018688576295971870422 -0.30139738321304321289 -0.094466328620910644531 0.074115313589572906494;0.05252386629581451416 0.097137428820133209229 -0.048160761594772338867 -0.20316968858242034912 0.17254905402660369873 -0.19280193746089935303 0.24125766754150390625 0.12339986115694046021 0.28757745027542114258 0.051537118852138519287 -0.31862562894821166992 -0.11955684423446655273 0.071192406117916107178 -0.25785401463508605957 0.2032038569450378418;-0.15726266801357269287 0.23007307946681976318 -0.064105466008186340332 0.018732314929366111755 -0.16007287800312042236 -0.020041236653923988342 0.021826200187206268311 0.23073795437812805176 -0.27819192409515380859 -0.21054865419864654541 -0.14621755480766296387 0.097839929163455963135 -0.004082104656845331192 0.33047649264335632324 -0.13462717831134796143;-0.011519261635839939117 -0.25236940383911132812 0.25023627281188964844 -0.01890836469829082489 0.1170522645115852356 -0.28245824575424194336 -0.37408772110939025879 0.22689744830131530762 0.011933745816349983215 -0.49514061212539672852 -0.24596285820007324219 0.31160986423492431641 -0.32882702350616455078 -0.1013269573450088501 0.2480214536190032959;0.18724775314331054688 0.021076390519738197327 -0.078159272670745849609 0.33278867602348327637 0.2509212195873260498 -0.044666316360235214233 0.06800355762243270874 0.039939358830451965332 -0.17745800316333770752 -0.12392532080411911011 -0.41607755422592163086 -0.043721292167901992798 -0.019130529835820198059 -0.20354814827442169189 0.10289879143238067627;-0.15914180874824523926 0.04622181132435798645 0.24691946804523468018 -0.17501538991928100586 0.035148963332176208496 -0.061157066375017166138 0.12096061557531356812 0.09584035724401473999 0.37953597307205200195 0.20371948182582855225 0.02536178193986415863 -0.099755257368087768555 0.21519486606121063232 -0.45167040824890136719 -0.20786850154399871826;0.014794529415667057037 0.2640469670295715332 -0.34982085227966308594 -0.0051341028884053230286 -0.16889971494674682617 0.16555579006671905518 0.066654130816459655762 0.15903863310813903809 0.24225556850433349609 0.33158609271049499512 0.15516306459903717041 -0.32958969473838806152 0.37763702869415283203 0.13074231147766113281 -0.37282204627990722656;0.22375664114952087402 -0.21056289970874786377 -0.054400421679019927979 -0.21268963813781738281 -0.2150907665491104126 0.020064240321516990662 0.19918432831764221191 0.3198871612548828125 0.35121357440948486328 -0.30553841590881347656 0.25318834185600280762 0.10607799887657165527 -0.2280852198600769043 -0.32901179790496826172 -0.0087257111445069313049;0.10760350525379180908 0.024004608392715454102 0.097945705056190490723 -0.1473201364278793335 -0.22345690429210662842 0.054603792726993560791 0.20249156653881072998 -0.24258936941623687744 -0.0058169569820165634155 -0.086255960166454315186 -0.17704576253890991211 -0.15858949720859527588 -0.065062433481216430664 0.1458486020565032959 0.30680036544799804688;-0.03840604051947593689 0.099920384585857391357 -0.041210301220417022705 -0.24015945196151733398 -0.14989718794822692871 0.0052768560126423835754 0.25561445951461791992 -0.11372933536767959595 0.024627288803458213806 0.20468373596668243408 0.12197373807430267334 0.1002739444375038147 0.11998665332794189453 0.46526494622230529785 0.058311000466346740723;-0.23234431445598602295 0.1088934093713760376 0.027790457010269165039 0.21914358437061309814 0.27219167351722717285 0.25148677825927734375 -0.53738158941268920898 0.42152822017669677734 -0.3425871431827545166 0.016666553914546966553 0.070505864918231964111 -0.098328851163387298584 -0.45686480402946472168 -0.27398076653480529785 -0.25327900052070617676;0.050249718129634857178 -0.066263258457183837891 0.049921985715627670288 0.23494987189769744873 0.075475864112377166748 -0.20495603978633880615 -0.23638491332530975342 -0.27864855527877807617 0.13925503194332122803 0.0032153446227312088013 -0.22735095024108886719 -0.094981975853443145752 -0.13804809749126434326 0.36315396428108215332 0.050087366253137588501;0.07069797813892364502 0.22173880040645599365 -0.21850299835205078125 -0.3455320894718170166 -0.083430930972099304199 0.12698265910148620605 0.31125485897064208984 -0.01811915077269077301 -0.44433856010437011719 0.22633226215839385986 -0.097179368138313293457 0.14175650477409362793 0.21413195133209228516 0.21348454058170318604 0.28468772768974304199;0.034798160195350646973 -0.25248360633850097656 0.080586567521095275879 0.04802988097071647644 0.40070569515228271484 0.11110360920429229736 0.041164025664329528809 -0.017961010336875915527 -0.07656624913215637207 0.12333892285823822021 -0.01955775916576385498 0.136926993727684021 -0.17818222939968109131 -0.68898481130599975586 0.00093790178652852773666;-0.23893180489540100098 -0.073611229658126831055 0.28048282861709594727 0.13152544200420379639 0.14905439317226409912 -0.0035347314551472663879 0.070647224783897399902 -0.2735773622989654541 -0.28085622191429138184 -0.25368940830230712891 -0.062705069780349731445 0.016180686652660369873 0.012736463919281959534 0.090115301311016082764 0.11850155144929885864;0.0059991283342242240906 0.045346107333898544312 -0.2002169191837310791 -0.17460858821868896484 0.078317150473594665527 -0.13213016092777252197 0.097884714603424072266 0.29254004359245300293 0.16267421841621398926 0.070077411830425262451 0.06561736762523651123 0.015706950798630714417 -0.19919075071811676025 -0.13096316158771514893 0.10159089416265487671;-0.053370997309684753418 -0.10940016061067581177 0.11403270065784454346 -0.057821869850158691406 -0.21117468178272247314 0.17284540832042694092 -0.095245957374572753906 0.37006369233131408691 0.38313880562782287598 0.13544343411922454834 0.2161509394645690918 -0.16077975928783416748 -0.25847217440605163574 -0.38373976945877075195 -0.13768742978572845459;0.20770850777626037598 -0.11137741804122924805 0.13802780210971832275 0.060320705175399780273 0.12284298986196517944 -0.13931895792484283447 -0.20644502341747283936 -0.23370856046676635742 0.26154851913452148438 0.051858458667993545532 -0.36924374103546142578 0.21752448379993438721 0.048130702227354049683 0.050777234137058258057 -0.21373403072357177734;-0.11340373754501342773 0.031601596623659133911 -0.10700418055057525635 -0.26505166292190551758 -0.21432563662528991699 -0.17814745008945465088 0.23196677863597869873 -0.27304539084434509277 0.18599049746990203857 0.33089992403984069824 0.1035685613751411438 -0.12627753615379333496 -0.1378669440746307373 0.45929318666458129883 0.33268475532531738281;0.25862491130828857422 -0.19744609296321868896 -0.13482601940631866455 -0.43062815070152282715 -0.035066034644842147827 0.030031608417630195618 0.33716171979904174805 -0.20945917069911956787 0.41676783561706542969 0.23063114285469055176 0.019983755424618721008 0.3918513953685760498 -0.053393799811601638794 -0.25382986664772033691 -0.046415619552135467529;-0.061832118779420852661 0.2263552248477935791 0.16492627561092376709 -0.15558224916458129883 -0.027998808771371841431 -0.11206027120351791382 -0.035938303917646408081 0.11681064963340759277 0.3435116112232208252 -0.17736014723777770996 -0.2984104156494140625 0.057923421263694763184 0.05714138224720954895 0.13358379900455474854 -0.34516173601150512695;0.043059390038251876831 -0.050489284098148345947 0.1281322091817855835 0.3539988398551940918 -0.058531261980533599854 0.093734480440616607666 -0.13321669399738311768 -0.026213543489575386047 0.3064867854118347168 0.12109998613595962524 -0.14240342378616333008 -0.3709996640682220459 -0.34687432646751403809 0.022360503673553466797 -0.47821772098541259766;0.10834842920303344727 0.1447493135929107666 -0.11130495369434356689 0.10877249389886856079 0.12997002899646759033 -0.077042475342750549316 0.12671644985675811768 0.33069729804992675781 -0.067878060042858123779 0.18230958282947540283 0.032829567790031433105 -0.18213191628456115723 0.18066848814487457275 -0.49357709288597106934 -0.016033738851547241211;0.069628596305847167969 0.086806841194629669189 -0.068923629820346832275 -0.013127928599715232849 -0.12005331367254257202 -0.01790083758533000946 -0.24437639117240905762 0.33537942171096801758 0.26927551627159118652 -0.26095607876777648926 0.11047809571027755737 -0.36470711231231689453 -0.16628724336624145508 -0.18300005793571472168 0.082404769957065582275;0.048654161393642425537 -0.019266910851001739502 0.27420341968536376953 -0.058225363492965698242 -0.041542761027812957764 0.07224353402853012085 -0.14661706984043121338 -0.21541474759578704834 -0.20033487677574157715 -0.24168358743190765381 -0.22161488234996795654 -0.040194477885961532593 -0.19714073836803436279 0.36551076173782348633 0.088880673050880432129;0.049252714961767196655 -0.2324002683162689209 0.14049400389194488525 0.094822242856025695801 -0.17699830234050750732 0.14454589784145355225 0.18541666865348815918 -0.10429921001195907593 -0.042784579098224639893 0.090868487954139709473 -0.25583547353744506836 0.11591361463069915771 0.2100639641284942627 0.26441115140914916992 -0.017503729090094566345;-0.1569757312536239624 -0.49353018403053283691 -0.32020512223243713379 -0.50591874122619628906 -0.18758699297904968262 -0.71568959951400756836 -0.47658371925354003906 0.41650813817977905273 1.0334821939468383789 -0.52646648883819580078 0.055576607584953308105 0.88707470893859863281 -0.71514952182769775391 0.41963306069374084473 0.45110979676246643066;-0.099923372268676757812 0.10455714911222457886 0.15532094240188598633 -0.20625816285610198975 -0.040176499634981155396 0.027201039716601371765 -0.18589638173580169678 -0.084434323012828826904 0.092935323715209960938 0.13442091643810272217 0.11426727473735809326 -0.15586540102958679199 0.17958514392375946045 0.041921131312847137451 0.095661163330078125;0.023691659793257713318 0.04293945804238319397 -0.025184880942106246948 0.10856915265321731567 -0.27567791938781738281 0.20263391733169555664 0.49838539958000183105 0.39232280850410461426 0.28272452950477600098 -0.08740158379077911377 -0.16473922133445739746 -0.21345186233520507812 -0.076187744736671447754 0.070879131555557250977 -0.45500785112380981445;0.029813548550009727478 0.061968732625246047974 0.10546626895666122437 -0.14279544353485107422 0.14191469550132751465 -0.0058069368824362754822 -0.028638929128646850586 0.20078341662883758545 -0.241994515061378479 -0.17361918091773986816 -0.19767151772975921631 0.029582772403955459595 -0.15971443057060241699 -0.2045657038688659668 0.20134466886520385742;-0.012412603013217449188 -0.087755315005779266357 0.13391216099262237549 -0.049347460269927978516 -0.051842205226421356201 0.064049206674098968506 0.18465600907802581787 0.14216411113739013672 0.0043185059912502765656 0.070183485746383666992 -0.33041918277740478516 -0.30588006973266601562 -0.25315004587173461914 0.12391190975904464722 0.36836299300193786621;0.13001801073551177979 -0.38124433159828186035 0.43684208393096923828 -0.28303903341293334961 0.36683729290962219238 -0.2093906402587890625 -0.16660422086715698242 -0.74873065948486328125 0.20107482373714447021 0.040656611323356628418 -0.26963156461715698242 0.26872271299362182617 -0.38200384378433227539 -0.012202767655253410339 0.47211119532585144043;-0.043099798262119293213 -0.024468259885907173157 0.16232053935527801514 0.10529188066720962524 -0.061987433582544326782 0.18401309847831726074 -0.27156931161880493164 0.3338629305362701416 -0.05852934718132019043 0.19290769100189208984 -0.059713780879974365234 -0.11420764029026031494 -0.31208378076553344727 -0.22932127118110656738 -0.10938766598701477051;0.13431957364082336426 -0.31342992186546325684 -0.19812619686126708984 0.1951865851879119873 0.021450554952025413513 0.26347842812538146973 0.35895958542823791504 -0.27899643778800964355 -0.33431467413902282715 -0.24999104440212249756 0.20266042649745941162 -0.024225616827607154846 -0.29122298955917358398 0.19534482061862945557 0.26930117607116699219;0.031325213611125946045 -0.16843780875205993652 0.15413363277912139893 0.11961273849010467529 0.26743337512016296387 -0.3046760261058807373 0.013802794739603996277 -0.40245097875595092773 -0.061491463333368301392 -0.47333726286888122559 -0.1749143451452255249 0.10751246660947799683 0.036152143031358718872 0.079840265214443206787 0.38391092419624328613];

% Layer 2
b2 = [0.001383568858727812767;0.0065374029800295829773;0.0047103818506002426147;-0.0021289330907166004181;-0.0090255783870816230774;0.0042772502638399600983;-0.00049887312343344092369;-0.032883759588003158569;0.010605364106595516205;0.0035488982684910297394;0.00055595621233806014061;0.011804182082414627075;0.026551855728030204773;-0.022308325394988059998;-0.0042626457288861274719;0.00021666823886334896088;-0.008500552736222743988;0.0036054283846169710159;0.0033815382048487663269;-0.0014388581039384007454;0.032368589192628860474;0.0018489417852833867073;-0.0019979290664196014404;0.004383662249892950058;0.0029631676152348518372;0.0013893495779484510422;-0.0007798675214871764183;0.0087977806106209754944;0.025417154654860496521;-0.00024761154782027006149];
LW2_1 = [-0.16586826741695404053 -0.1691436767578125 -0.2869427800178527832 0.14974252879619598389 -0.028910510241985321045 0.15318922698497772217 -0.19622631371021270752 -0.23090162873268127441 0.014967283234000205994 0.047552131116390228271 -0.082483403384685516357 0.057118717581033706665 -0.078223042190074920654 0.08665577322244644165 -0.039361353963613510132 0.29908019304275512695 0.15403012931346893311 0.14908306300640106201 0.12058518081903457642 0.046936139464378356934 0.025208545848727226257 0.089066371321678161621 -0.068237960338592529297 0.20492734014987945557 -0.17681194841861724854 -0.22656327486038208008 0.28797480463981628418 0.27902430295944213867 -0.058117721229791641235 0.21602913737297058105 -0.071580879390239715576 0.071198485791683197021 -0.017034551128745079041 0.062869288027286529541 0.025234445929527282715 -0.10528931766748428345 0.10727857053279876709 -0.02728808671236038208 -0.30254667997360229492 -0.059905238449573516846 0.18910075724124908447 -0.028668045997619628906 0.0081212213262915611267 0.0075524193234741687775 0.11040731519460678101 -0.22206476330757141113 0.17062604427337646484 -0.082124128937721252441 0.0051360582001507282257 -0.11584015190601348877;0.010164320468902587891 -0.18712341785430908203 0.21607720851898193359 0.11383856832981109619 0.17599888145923614502 0.098372757434844970703 0.16148208081722259521 -0.025971800088882446289 0.11518757790327072144 -0.055325817316770553589 -0.037609826773405075073 0.21231280267238616943 0.25831723213195800781 -0.25021404027938842773 0.14382635056972503662 0.048348587006330490112 0.011566122062504291534 0.10469195246696472168 -0.26585814356803894043 0.22971852123737335205 0.04372711479663848877 -0.10634949803352355957 0.15816912055015563965 -0.10980885475873947144 0.0099681038409471511841 0.24372160434722900391 0.21386265754699707031 0.26063668727874755859 0.21123041212558746338 -0.072870329022407531738 0.018753919750452041626 -0.30325609445571899414 -0.14749181270599365234 0.024497749283909797668 -0.17382048070430755615 0.015836270526051521301 -0.17562076449394226074 -0.19664356112480163574 0.17604783177375793457 0.015774860978126525879 0.13596181571483612061 -0.054045271128416061401 -0.13262930512428283691 0.10302507132291793823 0.10076475143432617188 -0.065530553460121154785 0.1157915070652961731 -0.025995638221502304077 -0.025288574397563934326 0.11394432932138442993;0.035673674196004867554 -0.1930462568998336792 -0.040977261960506439209 0.13471584022045135498 -0.17011278867721557617 0.15906053781509399414 0.21623259782791137695 -0.22266983985900878906 -0.01400903705507516861 0.24928718805313110352 0.20153345167636871338 -0.19060045480728149414 0.071007452905178070068 0.2226683497428894043 0.059645783156156539917 0.011036946438252925873 -0.089794933795928955078 -0.053106866776943206787 0.11977057904005050659 0.23425281047821044922 -0.01939983852207660675 -0.18480663001537322998 0.063037611544132232666 0.26794797182083129883 -0.090632811188697814941 0.02682732604444026947 0.30557081103324890137 -0.17281834781169891357 0.17703287303447723389 -0.12502366304397583008 -0.080058060586452484131 -0.21789376437664031982 0.34337946772575378418 0.18169648945331573486 0.14938613772392272949 -0.13145898282527923584 0.27945682406425476074 -0.5541515350341796875 -0.20286501944065093994 -0.21362288296222686768 0.073538295924663543701 0.16712927818298339844 -0.32729622721672058105 -0.073293201625347137451 0.1035475805401802063 0.095221504569053649902 -0.15609782934188842773 0.18181549012660980225 0.17366668581962585449 -0.024798603728413581848;0.12508994340896606445 0.13216720521450042725 0.12499858438968658447 0.15334749221801757812 -0.017093371599912643433 0.041189901530742645264 -0.067187748849391937256 -0.050900567322969436646 -0.24930816888809204102 0.18757674098014831543 0.25956565141677856445 -0.1737813800573348999 0.046957276761531829834 -0.089065730571746826172 -0.14940668642520904541 -0.056489422917366027832 -0.28667646646499633789 0.0019021839834749698639 0.020069144666194915771 0.12820363044738769531 0.11267447471618652344 0.037203487008810043335 0.04703792184591293335 0.3025912940502166748 -0.0034906184300780296326 -0.055165477097034454346 -0.052923966199159622192 0.24401350319385528564 -0.027730025351047515869 -0.17335499823093414307 0.10832331329584121704 0.38590309023857116699 -0.19459465146064758301 -0.02607664838433265686 0.11249721050262451172 0.04007929190993309021 0.19663995504379272461 0.39599439501762390137 -0.38027513027191162109 0.2620290219783782959 -0.032038666307926177979 -0.059797052294015884399 0.077703662216663360596 -0.1264857947826385498 0.0003265415725763887167 -0.094423122704029083252 0.20745576918125152588 -0.02150171622633934021 0.17439007759094238281 0.014014606364071369171;0.26217955350875854492 -0.015996502712368965149 -0.28074553608894348145 0.5984242558479309082 -0.058997280895709991455 0.055770378559827804565 -0.33384877443313598633 -0.14794135093688964844 0.1900310516357421875 -0.12958550453186035156 0.39930570125579833984 0.14066244661808013916 0.32524463534355163574 0.30029159784317016602 -0.22883909940719604492 -0.21432849764823913574 -0.13172584772109985352 0.15184986591339111328 -0.78037434816360473633 0.17901097238063812256 -0.077491641044616699219 0.49659070372581481934 -0.087359786033630371094 -0.14635729789733886719 0.2178770601749420166 -0.037070680409669876099 0.013485307805240154266 0.30099141597747802734 -0.34100067615509033203 -0.28947272896766662598 0.29354164004325866699 0.52416568994522094727 -0.39012753963470458984 0.11687862873077392578 -0.1059757918119430542 -0.18668094277381896973 -0.053800098598003387451 0.33628436923027038574 -0.086690656840801239014 -0.40376889705657958984 0.010870439000427722931 -0.27248206734657287598 -0.027583990246057510376 0.35254138708114624023 -0.035832013934850692749 -0.26556295156478881836 -0.66225278377532958984 -0.17228156328201293945 0.24623633921146392822 -0.33329623937606811523;-0.043669246137142181396 0.16488578915596008301 -0.20130828022956848145 0.16135570406913757324 0.057749219238758087158 0.13025724887847900391 0.26686269044876098633 -0.17176796495914459229 -0.13080422580242156982 0.061181966215372085571 -0.27008751034736633301 0.16577568650245666504 -0.020424701273441314697 -0.069214634597301483154 0.050110861659049987793 0.067886367440223693848 0.2387742847204208374 -0.097638189792633056641 0.012932689860463142395 -0.27925100922584533691 -0.12963746488094329834 -0.010719980113208293915 -0.15845817327499389648 -0.20841415226459503174 0.033783689141273498535 -0.090271830558776855469 0.16653506457805633545 -0.055410999804735183716 0.040237996727228164673 0.0093522453680634498596 0.2444321364164352417 -0.16741394996643066406 -0.075791351497173309326 -0.14281982183456420898 0.13424719870090484619 0.039976112544536590576 0.0064658704213798046112 -0.27077177166938781738 -0.056628990918397903442 -0.15447768568992614746 0.021987432613968849182 -0.19348831474781036377 -0.24905623495578765869 -0.11335934698581695557 -0.1105710938572883606 -0.0057747177779674530029 -0.0053767464123666286469 0.17765632271766662598 -0.17989167571067810059 0.22248402237892150879;-0.076161324977874755859 0.08065052330493927002 -0.1040786057710647583 -0.074814416468143463135 0.22964148223400115967 0.068313471972942352295 -0.095999769866466522217 0.19656310975551605225 -0.08717250823974609375 0.044912613928318023682 0.19582940638065338135 -0.19428348541259765625 0.0046370336785912513733 0.20187880098819732666 0.053937964141368865967 -0.0037538697943091392517 0.181797027587890625 0.015689861029386520386 -0.13405989110469818115 -0.1347977370023727417 0.02402153797447681427 -0.030080925673246383667 0.073281601071357727051 -0.090169347822666168213 -0.068728744983673095703 -0.14632327854633331299 -0.031666770577430725098 0.11122234165668487549 0.11272357404232025146 -0.31535384058952331543 0.32285732030868530273 0.19852790236473083496 -0.28825202584266662598 -0.093246094882488250732 0.078344352543354034424 0.088267810642719268799 0.0062659448012709617615 -0.19794900715351104736 0.30160507559776306152 -0.07500120997428894043 -0.21065010130405426025 0.034049067646265029907 0.019319107756018638611 0.19685250520706176758 0.21332541108131408691 -0.1884257197380065918 -0.030860802158713340759 -0.0032360486220568418503 -0.068093113601207733154 -0.0067129237577319145203;0.021586053073406219482 -0.2154312431812286377 -0.063599601387977600098 0.22140704095363616943 -0.10825193673372268677 -0.34254807233810424805 0.036204311996698379517 -0.39509794116020202637 -0.17095506191253662109 0.22207789123058319092 0.019891167059540748596 0.21923440694808959961 -0.067858316004276275635 -0.27370792627334594727 -0.0039579500444233417511 0.079574719071388244629 -0.11183259636163711548 0.053154356777667999268 0.051973626017570495605 -0.30148220062255859375 -0.012230536900460720062 0.0040398137643933296204 -0.35229471325874328613 -0.15326169133186340332 -0.089333064854145050049 0.08898302912712097168 0.32440358400344848633 -0.50296586751937866211 0.14158330857753753662 -0.033880386501550674438 0.021431712433695793152 0.38341337442398071289 -0.23742486536502838135 -0.19337226450443267822 -0.17757174372673034668 0.13759058713912963867 0.28758850693702697754 0.39072212576866149902 0.12416016310453414917 -0.049126725643873214722 -0.19855204224586486816 0.065927378833293914795 -0.1401043236255645752 -0.32829847931861877441 0.27695724368095397949 -0.15494830906391143799 -0.12404366582632064819 0.13339321315288543701 -0.19757150113582611084 -0.074754402041435241699;0.42176032066345214844 -0.17881372570991516113 -0.027597693726420402527 -0.58297491073608398438 0.09631337970495223999 0.51756036281585693359 -0.038117162883281707764 1.2524311542510986328 0.17314255237579345703 -0.33236530423164367676 0.13826283812522888184 0.55235522985458374023 -0.11205666512250900269 0.32668405771255493164 -0.13351531326770782471 0.07787971198558807373 0.32967585325241088867 -0.07694530487060546875 0.17690642178058624268 0.090137720108032226562 0.50056946277618408203 -0.12923713028430938721 0.19518287479877471924 -0.29756402969360351562 -0.40734115242958068848 0.48711562156677246094 -0.41842168569564819336 -0.52334541082382202148 0.64818513393402099609 0.12548418343067169189 -0.0026798073668032884598 -0.54599928855895996094 0.19867794215679168701 -0.52305757999420166016 0.13883885741233825684 0.15930338203907012939 0.30019202828407287598 -0.037263985723257064819 0.2081613391637802124 -0.10555472970008850098 -0.2964999079704284668 -0.29207366704940795898 0.050048261880874633789 0.21146439015865325928 0.31083199381828308105 0.043503321707248687744 0.0011099177645519375801 0.20628575980663299561 -0.49289426207542419434 -0.043463505804538726807;-0.18271312117576599121 -0.19390243291854858398 0.21392254531383514404 0.1588436812162399292 -0.18599043786525726318 -0.023795280605554580688 -0.080087549984455108643 0.020728146657347679138 0.0063423532992601394653 -0.03402873501181602478 0.16118344664573669434 -0.18854112923145294189 -0.05703258514404296875 0.42711219191551208496 0.1809574812650680542 -0.28855854272842407227 0.0022955297026783227921 -0.089303590357303619385 -0.050697140395641326904 -0.053252477198839187622 0.057122603058815002441 -0.21449621021747589111 0.13013237714767456055 -0.13745425641536712646 0.25907927751541137695 -0.21324716508388519287 -0.14646750688552856445 0.080152131617069244385 -0.096392601728439331055 -0.062677301466464996338 0.29955524206161499023 0.13301616907119750977 -0.20561191439628601074 -0.11197675764560699463 0.3049462735652923584 0.037937883287668228149 -0.24219642579555511475 -0.34353777766227722168 0.084262043237686157227 0.074640825390815734863 -0.05776022002100944519 -0.01132932957261800766 -0.041485581547021865845 0.13538946211338043213 -0.047377012670040130615 -0.096794173121452331543 0.25513449311256408691 -0.16411171853542327881 -0.13030758500099182129 -0.062841914594173431396;-0.26512107253074645996 0.24803657829761505127 -0.049602739512920379639 -0.15674075484275817871 -0.030824648216366767883 0.16881230473518371582 -0.064772918820381164551 -0.13753627240657806396 -0.14830663800239562988 0.14712417125701904297 0.16438251733779907227 -0.33661282062530517578 -0.13378204405307769775 -0.2491244971752166748 -0.062812194228172302246 0.068797349929809570312 -0.013913451693952083588 -0.29778903722763061523 0.093079969286918640137 -0.22671942412853240967 0.10889579355716705322 0.020609322935342788696 0.078250005841255187988 0.21388420462608337402 -0.0016317850677296519279 -0.075217612087726593018 -0.086453914642333984375 0.054129790514707565308 0.19907027482986450195 0.026649173349142074585 0.082612767815589904785 0.05591869354248046875 0.14221040904521942139 -0.13478167355060577393 -0.14008541405200958252 -0.0093261189758777618408 0.027498971670866012573 -0.32195070385932922363 -0.18989314138889312744 0.072179824113845825195 0.070848487317562103271 -0.027554521337151527405 -0.17792099714279174805 0.19289872050285339355 0.024219483137130737305 0.022974902763962745667 -0.081408642232418060303 0.073347821831703186035 -0.0036407404113560914993 0.048755031079053878784;-0.20962774753570556641 0.31793242692947387695 -0.48557603359222412109 0.074435144662857055664 0.093260481953620910645 0.0096764471381902694702 -0.15111146867275238037 0.20776133239269256592 -0.19526109099388122559 -0.26596954464912414551 0.11221192032098770142 0.12811556458473205566 -0.22992432117462158203 0.35952362418174743652 0.045655641704797744751 0.38211336731910705566 -0.16013203561305999756 0.17267683148384094238 -0.16222321987152099609 0.12895855307579040527 -0.26401039958000183105 -0.084602542221546173096 -0.12272620201110839844 -0.1456098705530166626 -0.24937246739864349365 0.23322635889053344727 0.0056113325990736484528 0.091354772448539733887 -0.065815106034278869629 0.36112692952156066895 -0.11955177038908004761 -0.53222167491912841797 0.17874957621097564697 -0.31549686193466186523 -0.524478912353515625 0.018541166558861732483 0.23841260373592376709 -0.35444429516792297363 0.062150038778781890869 0.30410146713256835938 -0.1414273679256439209 -0.30911138653755187988 0.074547059834003448486 0.18785119056701660156 -0.020132333040237426758 0.069522798061370849609 0.0046918103471398353577 0.23873412609100341797 0.10260266810655593872 -0.14727573096752166748;0.27802765369415283203 -0.023314896970987319946 0.52979475259780883789 -0.048817086964845657349 -0.020159011706709861755 0.24508373439311981201 -0.046420592814683914185 0.42429503798484802246 0.27335271239280700684 -0.0024863777216523885727 -0.043356962502002716064 0.21919786930084228516 -0.073089681565761566162 -0.51209545135498046875 0.12064355611801147461 0.17237935960292816162 -0.072831965982913970947 -0.18866311013698577881 0.31589594483375549316 0.18565554916858673096 0.27701333165168762207 -0.10860562324523925781 0.2398151010274887085 0.16758053004741668701 -0.38387578725814819336 -0.25485327839851379395 -0.08600260317325592041 -0.5934651494026184082 -0.057752914726734161377 -0.0083160940557718276978 -0.068156406283378601074 0.78886419534683227539 0.25611996650695800781 -0.17678478360176086426 0.41089871525764465332 0.1308790743350982666 -0.057335555553436279297 0.31178379058837890625 0.31997621059417724609 -0.20378093421459197998 -0.034136377274990081787 0.55348157882690429688 -0.069105327129364013672 -0.10983079671859741211 -0.15804818272590637207 -0.058966420590877532959 -0.078295446932315826416 0.27406635880470275879 -0.032927922904491424561 0.051128160208463668823;0.023414513096213340759 0.42487266659736633301 -0.22380059957504272461 -0.49771404266357421875 -0.24812169373035430908 0.31773659586906433105 0.17511726915836334229 0.812412261962890625 -0.24290132522583007812 -0.3431370854377746582 0.28627169132232666016 0.063859902322292327881 -0.0014769347617402672768 0.4035243988037109375 0.15925700962543487549 -0.048747647553682327271 0.23111923038959503174 -0.20453047752380371094 -0.041708398610353469849 0.083122245967388153076 -0.013652155175805091858 -0.28194403648376464844 -0.52857935428619384766 0.1038144528865814209 -0.17266134917736053467 0.0034649076405912637711 0.12023371458053588867 0.14570136368274688721 0.27314087748527526855 0.4357713162899017334 -0.23122873902320861816 -0.3743610084056854248 0.2549330592155456543 0.082513041794300079346 0.19729334115982055664 -0.062772288918495178223 0.042721558362245559692 0.58775603771209716797 -0.4000758826732635498 0.16025988757610321045 0.06404294818639755249 -0.4743824005126953125 0.042511086910963058472 -0.31445214152336120605 0.16051179170608520508 0.18208678066730499268 0.42289569973945617676 -0.18519274890422821045 0.21265675127506256104 0.41474455595016479492;0.069192312657833099365 0.056633733212947845459 0.1581643521785736084 0.018055077642202377319 -0.15308147668838500977 -0.069052226841449737549 -0.16997607052326202393 -0.060984607785940170288 -0.018554903566837310791 -0.055461253970861434937 0.26569092273712158203 0.029455084353685379028 0.087558612227439880371 -0.34046751260757446289 0.066618248820304870605 0.052775718271732330322 -0.1074237525463104248 0.0033973371610045433044 -0.23697504401206970215 0.21119163930416107178 0.10851641744375228882 0.16028432548046112061 -0.12292737513780593872 0.25609895586967468262 0.11966500431299209595 -0.29478254914283752441 -0.16394805908203125 0.047035653144121170044 -0.1192477494478225708 -0.072958625853061676025 0.20302620530128479004 0.45988184213638305664 -0.17860281467437744141 -0.057135786861181259155 0.089916758239269256592 -0.35262918472290039062 0.12367966026067733765 0.44147777557373046875 -0.20448283851146697998 0.36129745841026306152 0.020398998633027076721 -0.049847211688756942749 -0.14562678337097167969 0.27504730224609375 -0.10859597474336624146 -0.19534678757190704346 0.38774675130844116211 0.011977633461356163025 0.037870906293392181396 -0.048622123897075653076;-0.11943064630031585693 0.18549780547618865967 0.34622514247894287109 -0.012158136814832687378 0.44292563199996948242 0.021352695301175117493 -0.065079718828201293945 -0.051710568368434906006 0.18186625838279724121 -0.21348334848880767822 0.19219431281089782715 -0.049070052802562713623 0.0073633580468595027924 0.019958289340138435364 0.13598236441612243652 0.27879849076271057129 0.17509436607360839844 -0.24728687107563018799 -0.039961405098438262939 0.0066369920969009399414 0.2911370694637298584 -0.0059652123600244522095 -0.26942679286003112793 0.013197975233197212219 0.18800432980060577393 -0.22602224349975585938 0.19059012830257415771 -0.026684433221817016602 -0.27915456891059875488 0.21697267889976501465 -0.063200406730175018311 0.28370305895805358887 0.14461918175220489502 0.057742826640605926514 0.13653187453746795654 0.13028834760189056396 -0.060812566429376602173 -0.15936180949211120605 0.23931640386581420898 -0.15308091044425964355 0.20623239874839782715 -0.18196862936019897461 0.19480185210704803467 0.20721027255058288574 -0.25663614273071289062 -0.19335959851741790771 0.25591921806335449219 -0.27196323871612548828 -0.24511386454105377197 0.085646256804466247559;0.10439280420541763306 -0.18284144997596740723 0.19817239046096801758 -0.18813063204288482666 -0.069899879395961761475 0.15895071625709533691 0.12890310585498809814 0.084008090198040008545 -0.25101357698440551758 -0.042993579059839248657 -0.059023227542638778687 -0.16479250788688659668 0.16117367148399353027 -0.12308716773986816406 -0.014023136347532272339 0.25631409883499145508 0.074172221124172210693 0.11343441158533096313 0.056972350925207138062 0.049533776938915252686 0.082878611981868743896 -0.19211062788963317871 0.13709218800067901611 -0.025071913376450538635 0.1643870919942855835 -0.28053694963455200195 0.03764654695987701416 0.27647355198860168457 0.2249018549919128418 0.039897426962852478027 -0.24734641611576080322 -0.24617713689804077148 0.034218989312648773193 0.0095219062641263008118 -0.073707886040210723877 0.12978708744049072266 -0.23622848093509674072 0.30085378885269165039 0.18788257241249084473 -0.13470697402954101562 -0.067156821489334106445 0.19729414582252502441 0.2034855186939239502 -0.054024197161197662354 0.10808625072240829468 -0.26919767260551452637 -0.043430741876363754272 -0.070645928382873535156 0.19582292437553405762 -0.04363423958420753479;0.06085845455527305603 0.25903239846229553223 -0.16257311403751373291 -0.097484327852725982666 0.07292636483907699585 -0.23824547231197357178 -0.06801525503396987915 -0.34610265493392944336 -0.092287629842758178711 0.16012556850910186768 0.083055436611175537109 0.10261841863393783569 0.075386226177215576172 0.083784423768520355225 -0.039987385272979736328 -0.034754589200019836426 -0.13062010705471038818 0.070067398250102996826 0.10286298394203186035 0.069517977535724639893 -0.046867556869983673096 -0.13616222143173217773 -0.2714417576789855957 0.077250093221664428711 -0.24813023209571838379 -0.15288513898849487305 0.30569833517074584961 -0.29788994789123535156 -0.012330860830843448639 0.34061416983604431152 -0.18220257759094238281 -0.43300369381904602051 0.29267138242721557617 0.021813847124576568604 0.11281062662601470947 -0.10792151093482971191 -0.1625404655933380127 -0.65657180547714233398 -0.16342449188232421875 0.10333351045846939087 -0.047961752861738204956 -0.0305622834712266922 -0.18473334610462188721 -0.28218317031860351562 0.1037401929497718811 -0.19280374050140380859 -0.04302616417407989502 0.06413860619068145752 0.2163680344820022583 0.22297950088977813721;-0.12890315055847167969 -0.43926191329956054688 0.039140220731496810913 -0.0085546914488077163696 0.28020110726356506348 -0.26419579982757568359 0.088245175778865814209 0.22756266593933105469 0.36813682317733764648 0.26183614134788513184 -0.11465921998023986816 0.28146433830261230469 -0.096697397530078887939 -0.072614639997482299805 -0.22084172070026397705 0.087500020861625671387 0.11306170374155044556 -0.18493536114692687988 0.073424607515335083008 0.12610869109630584717 -0.27089825272560119629 -0.23551706969738006592 0.21532100439071655273 -0.25976198911666870117 0.13174183666706085205 0.080108225345611572266 -0.11359369754791259766 -0.22789859771728515625 0.27647888660430908203 0.073825702071189880371 0.35612305998802185059 0.61095160245895385742 0.13320055603981018066 0.024657648056745529175 0.23800952732563018799 -0.25326913595199584961 0.057197622954845428467 0.24962866306304931641 0.096574284136295318604 0.1660404503345489502 -0.24639312922954559326 -0.1968441009521484375 -0.29680001735687255859 0.10104570537805557251 -0.049758762121200561523 0.20558358728885650635 -0.071726620197296142578 -0.015435339882969856262 -0.16257849335670471191 0.0089898258447647094727;-0.20135033130645751953 -0.10134273022413253784 -0.26857727766036987305 0.30483952164649963379 -0.21733652055263519287 -0.1296300739049911499 0.012485694140195846558 0.23112116754055023193 -0.11795689165592193604 -0.25212380290031433105 0.014283563941717147827 -0.13217698037624359131 0.16923576593399047852 -0.20863091945648193359 -0.099513024091720581055 -0.24204194545745849609 -0.174877166748046875 -0.28681641817092895508 0.068512484431266784668 -0.30376896262168884277 -0.13113211095333099365 0.063246622681617736816 0.23656001687049865723 -0.14177075028419494629 0.32541662454605102539 -0.29770296812057495117 0.27604600787162780762 0.095099151134490966797 -0.12069533765316009521 -0.19113737344741821289 0.17584007978439331055 -0.33181819319725036621 -0.12147767096757888794 0.16482809185981750488 0.22393584251403808594 -0.062842063605785369873 -0.10339178889989852905 -0.65039014816284179688 -0.038212023675441741943 0.0013290586648508906364 -0.053456474095582962036 -0.060209777206182479858 0.075486920773983001709 -0.33021932840347290039 -0.0059899142943322658539 0.14139479398727416992 0.082453139126300811768 -0.33766305446624755859 0.199391975998878479 -0.072427406907081604004;0.17293065786361694336 0.16866663098335266113 -0.2621936798095703125 0.086385712027549743652 0.27814468741416931152 0.11791464686393737793 0.083091095089912414551 0.40323987603187561035 0.11360009759664535522 0.068609967827796936035 0.099886767566204071045 -0.2547118067741394043 0.26989972591400146484 0.053400132805109024048 0.19002036750316619873 0.050674017518758773804 -0.039697736501693725586 -0.09383853524923324585 -0.5560004115104675293 0.13052016496658325195 -0.17181256413459777832 0.27538546919822692871 -0.33488914370536804199 -0.008417065255343914032 -0.064289487898349761963 -0.28894862532615661621 -0.088703937828540802002 -0.020524863153696060181 -0.10488535463809967041 0.14282214641571044922 -0.013853045180439949036 -0.6163991093635559082 -0.27489054203033447266 0.33876860141754150391 0.20409916341304779053 -0.21900172531604766846 0.097879834473133087158 -0.23273240029811859131 0.055354051291942596436 0.13288319110870361328 0.03667095676064491272 -0.16214679181575775146 0.11977823823690414429 0.28308477997779846191 -0.32969084382057189941 0.081651717424392700195 -0.28081074357032775879 0.076810918748378753662 0.22032642364501953125 -0.21383537352085113525;0.031290937215089797974 -0.16697511076927185059 0.076964117586612701416 -0.18961594998836517334 0.15028643608093261719 0.051895875483751296997 0.042519390583038330078 -0.14289093017578125 0.038237228989601135254 0.083158053457736968994 0.097908534109592437744 -0.081716179847717285156 0.13416580855846405029 -0.086301185190677642822 -0.088402934372425079346 -0.050281241536140441895 0.00034203755785711109638 0.022378515452146530151 0.11634153127670288086 0.045294389128684997559 0.07255779951810836792 0.28321689367294311523 0.057121109217405319214 -0.033641155809164047241 0.22260075807571411133 -0.12062206864356994629 0.22213162481784820557 0.093017920851707458496 -0.12454880028963088989 0.21538428962230682373 -0.18763405084609985352 0.30083796381950378418 0.058393027633428573608 0.10733500868082046509 -0.24298079311847686768 -0.10882508009672164917 0.12145975977182388306 0.27846983075141906738 0.069783978164196014404 -0.099286042153835296631 0.19738855957984924316 -0.10630568861961364746 -0.13743701577186584473 -0.26340660452842712402 -0.14551974833011627197 -0.048821032047271728516 0.2027406841516494751 0.056560941040515899658 -0.0055003939196467399597 -0.080176338553428649902;-0.15914997458457946777 -0.12573157250881195068 -0.065848328173160552979 -0.048415951430797576904 0.17443928122520446777 -0.098895058035850524902 -0.16712765395641326904 0.12521606683731079102 -0.046134527772665023804 0.15982337296009063721 -0.14119759202003479004 -0.16164115071296691895 0.22318209707736968994 0.32334211468696594238 -0.077554494142532348633 -0.094054408371448516846 -0.16929112374782562256 0.010339353233575820923 -0.010471878573298454285 0.10939459502696990967 0.2647196650505065918 -0.11115598678588867188 -0.047844070941209793091 0.054089277982711791992 -0.16195698082447052002 0.12724103033542633057 -0.16363699734210968018 0.16874212026596069336 -0.21571135520935058594 0.021088844165205955505 0.12329033017158508301 0.42405441403388977051 0.24328459799289703369 -0.086637251079082489014 -0.30850443243980407715 0.13878202438354492188 0.18150159716606140137 -0.11772597581148147583 -0.25009807944297790527 0.016028212383389472961 -0.12410859763622283936 0.15222997963428497314 0.15638564527034759521 0.23190870881080627441 -0.031048730015754699707 0.20334942638874053955 0.12214393913745880127 -0.022354967892169952393 -0.039015904068946838379 -0.0083589646965265274048;0.17491155862808227539 -0.14040914177894592285 0.20310728251934051514 0.14189115166664123535 -0.0012216694885864853859 0.00010863554052775725722 0.21578763425350189209 -0.16000631451606750488 -0.038726061582565307617 0.11843602359294891357 0.061348337680101394653 -0.077485054731369018555 0.052219219505786895752 0.1754512786865234375 0.076468259096145629883 -0.12958258390426635742 0.17770850658416748047 -0.098226524889469146729 0.015122735872864723206 0.10626179724931716919 0.11297838389873504639 -0.12425366044044494629 -0.10621559619903564453 -0.17630122601985931396 0.018966194242238998413 -0.028271066024899482727 0.169307708740234375 0.18689729273319244385 -0.1358976215124130249 -0.13518992066383361816 -0.014933798462152481079 0.0046076998114585876465 0.06706724315881729126 -0.035357333719730377197 -0.13213461637496948242 -0.24822236597537994385 -0.005164546426385641098 -0.11906731873750686646 0.013616122305393218994 0.063957825303077697754 -0.10254626721143722534 -0.093676865100860595703 0.056329235434532165527 0.023675274103879928589 0.0153556065633893013 0.081477425992488861084 -0.11642979085445404053 0.059068743139505386353 -0.10372348874807357788 0.31528612971305847168;-0.21504840254783630371 -0.066842205822467803955 -0.25602427124977111816 -0.1197864040732383728 -0.36294135451316833496 -0.036661773920059204102 0.27525895833969116211 -0.2487519681453704834 -0.036686412990093231201 0.24690236151218414307 -0.19517575204372406006 -0.019544024020433425903 -0.24810591340065002441 -0.36845135688781738281 0.10152585804462432861 0.15655159950256347656 0.14204242825508117676 -0.065465696156024932861 0.28703832626342773438 0.20491261780261993408 -0.2451191246509552002 -0.38376015424728393555 -0.26495113968849182129 0.29245227575302124023 0.061603244394063949585 -0.22789618372917175293 0.13059850037097930908 -0.018358021974563598633 -0.0079730674624443054199 -0.11348231136798858643 -0.072350941598415374756 -0.56059336662292480469 0.073724545538425445557 0.17047825455665588379 0.040608264505863189697 0.075665593147277832031 0.050573203712701797485 -0.75048887729644775391 0.010853980667889118195 -0.0034949374385178089142 0.1046207621693611145 0.44297611713409423828 -0.20322188735008239746 -0.46412631869316101074 -0.004456282593309879303 0.014221750199794769287 0.39322525262832641602 0.0081498371437191963196 0.12740957736968994141 0.50731730461120605469;0.26779374480247497559 0.16379626095294952393 -0.28683772683143615723 0.17943018674850463867 -0.30442804098129272461 0.076717250049114227295 -0.12278979271650314331 -0.033969640731811523438 -0.20317745208740234375 -0.080494135618209838867 -0.20124296844005584717 0.02025976032018661499 -0.17114481329917907715 -0.04101856425404548645 -0.18600708246231079102 -0.072738021612167358398 0.053568206727504730225 0.18911872804164886475 0.35764977335929870605 0.22813901305198669434 0.042025152593851089478 -0.29276090860366821289 -0.0064169489778578281403 0.18607883155345916748 -0.016961449757218360901 0.0035215837415307760239 0.028910582885146141052 -0.032060451805591583252 -0.20480686426162719727 -0.17214071750640869141 0.26100507378578186035 -0.4142029881477355957 0.032449357211589813232 0.22131665050983428955 -0.023815123364329338074 0.2218132317066192627 0.10381631553173065186 -0.29225689172744750977 -0.11668912321329116821 -0.13345523178577423096 0.039255645126104354858 0.011280907317996025085 0.12397889047861099243 -0.25780940055847167969 0.01136631891131401062 0.017129436135292053223 0.27996575832366943359 0.041983675211668014526 -0.14061465859413146973 0.28061091899871826172;0.16083952784538269043 -0.15643444657325744629 -0.036168169230222702026 0.11650100350379943848 0.052176505327224731445 -0.04779634624719619751 0.15393677353858947754 0.21983848512172698975 0.20569659769535064697 0.011965211480855941772 -0.16560326516628265381 -0.017566230148077011108 -0.1082639545202255249 -0.01521730329841375351 0.089178226888179779053 0.063729226589202880859 0.041340179741382598877 0.19510705769062042236 -0.0061699985526502132416 -0.04105655476450920105 -0.074940688908100128174 -0.022298661991953849792 0.12889884412288665771 0.015267404727637767792 0.06097203865647315979 -0.13494871556758880615 0.053521569818258285522 0.11899584531784057617 0.012192795053124427795 0.086969591677188873291 -0.14268696308135986328 0.047276940196752548218 -0.058853700757026672363 0.030958047136664390564 0.072671562433242797852 0.067633442580699920654 0.10698050260543823242 0.094341441988945007324 0.049975428730249404907 -0.073956064879894256592 0.13487960398197174072 -0.0099875899031758308411 -0.200817108154296875 -0.040440473705530166626 0.10314615070819854736 0.17966608703136444092 -0.052320998162031173706 0.13874587416648864746 0.024601316079497337341 -0.1222152411937713623;0.27065619826316833496 -0.014612170867621898651 0.022060837596654891968 -0.21016992628574371338 0.098933525383472442627 -0.0038090017624199390411 0.078460104763507843018 -0.24137479066848754883 0.23899823427200317383 0.0867060050368309021 0.20477819442749023438 -0.14948824048042297363 0.17855650186538696289 0.34891068935394287109 0.085273444652557373047 -0.025517899543046951294 -0.1059370189905166626 0.11309696733951568604 0.18894031643867492676 0.083714514970779418945 0.069432266056537628174 -0.3384940028190612793 0.16709382832050323486 -0.16089624166488647461 0.062980800867080688477 0.24974589049816131592 -0.051854349672794342041 0.36171475052833557129 -0.11148524284362792969 -0.16028362512588500977 -0.25155547261238098145 -0.060720596462488174438 0.15458117425441741943 -0.038623344153165817261 -0.094360359013080596924 -0.20329929888248443604 -0.16713820397853851318 0.29873585700988769531 0.32898694276809692383 0.077413260936737060547 0.084398575127124786377 -0.10553236305713653564 -0.013552891090512275696 -0.069456502795219421387 0.26184061169624328613 -0.029981352388858795166 0.18391016125679016113 0.041310187429189682007 0.37755876779556274414 0.28470644354820251465;-0.11540798842906951904 -0.37106165289878845215 0.2497431635856628418 0.53378689289093017578 0.34972441196441650391 -0.4329706728458404541 -0.2896830141544342041 -1.0256458520889282227 0.26691600680351257324 0.42474511265754699707 0.0069147497415542602539 0.25592091679573059082 -0.21269531548023223877 -0.49742212891578674316 0.11212500929832458496 0.10562142729759216309 -0.17481774091720581055 -0.073263354599475860596 0.1159496307373046875 -0.22960500419139862061 0.14004933834075927734 0.22043204307556152344 0.39927318692207336426 0.12017341703176498413 0.040210805833339691162 0.24875694513320922852 -0.10538860410451889038 -0.031949661672115325928 -0.37764066457748413086 -0.093762084841728210449 0.32056078314781188965 0.016739400103688240051 0.079498268663883209229 -0.10531749576330184937 0.055434361100196838379 0.056309301406145095825 -0.36190599203109741211 -0.25286361575126647949 0.074937202036380767822 -0.34036856889724731445 0.10958246886730194092 0.41732460260391235352 -0.2866681516170501709 0.44279935956001281738 -0.23594152927398681641 -0.043345231562852859497 -0.4286340177059173584 0.10145324468612670898 0.22996018826961517334 -0.42690417170524597168;-0.10276453197002410889 -0.31665056943893432617 0.25244760513305664062 0.18953694403171539307 0.18115815520286560059 -0.15952506661415100098 0.056660480797290802002 -0.050713229924440383911 -0.030016969889402389526 -0.34294033050537109375 -0.090009719133377075195 -0.12612761557102203369 0.041645582765340805054 -0.25520753860473632812 -0.060498811304569244385 0.30601334571838378906 -0.0051300199702382087708 -0.11507482826709747314 -0.021409530192613601685 0.14780989289283752441 -0.1105829775333404541 -0.1348482966423034668 -0.19114676117897033691 0.048181749880313873291 0.069756872951984405518 0.035049367696046829224 -0.13121742010116577148 0.026224616914987564087 -0.091356582939624786377 0.080774456262588500977 -0.045871805399656295776 -0.1736637800931930542 0.060761097818613052368 -0.094916105270385742188 -0.11610554903745651245 -0.01955014839768409729 0.19579668343067169189 0.21387425065040588379 0.033229693770408630371 -0.14171192049980163574 0.14783297479152679443 -0.053313825279474258423 -0.23565042018890380859 0.0016342891613021492958 0.080891847610473632812 0.1066277623176574707 0.24355995655059814453 0.025913378223776817322 0.31236892938613891602 0.014506491832435131073];

% Layer 3
b3 = [0.0059708515182137489319;-0.0016807508654892444611];
LW3_2 = [0.0063718645833432674408 -0.0034682538826018571854 -0.022610424086451530457 0.0071984124369919300079 0.01762981712818145752 0.0042731282301247119904 -0.0044541303068399429321 0.083097413182258605957 -0.19446401298046112061 -0.01500792335718870163 0.0022394249681383371353 -0.043373133987188339233 0.15964771807193756104 0.13247817754745483398 0.0085059488192200660706 -0.0064139789901673793793 0.0099913347512483596802 -0.15103401243686676025 0.10375133901834487915 -0.14175055921077728271 -0.12742306292057037354 1.3237528037279844284e-05 -0.0027086269110441207886 -0.00043531670235097408295 -0.18128031492233276367 -0.0087308911606669425964 -0.0023406574036926031113 0.0069695794954895973206 -0.067635506391525268555 0.0020779808983206748962;0.00067662075161933898926 0.0054427352733910083771 -0.056055337190628051758 0.012487804517149925232 0.0029084605630487203598 -0.0053642252460122108459 -0.0049102078191936016083 0.013291854411363601685 0.036987826228141784668 -0.057901199907064437866 -0.0028853085823357105255 0.012256025336682796478 -0.019139081239700317383 0.070545569062232971191 0.03264686092734336853 -0.048176169395446777344 0.069838955998420715332 -0.0091034527868032455444 0.0043945568613708019257 0.044007096439599990845 0.064212478697299957275 -0.0035503234248608350754 -0.017044611275196075439 -0.0047670779749751091003 0.053500987589359283447 0.040356580168008804321 0.0061297509819269180298 0.03679890558123588562 0.10680275410413742065 0.0077007459476590156555];

% Output 1
y1_step1.ymin = -1;
y1_step1.gain = [49.9650705341354;114.346721306337];
y1_step1.xoffset = [-0.029682615757194;-0.00751743477949805];

% ===== SIMULATION ========

% Format Input Arguments
isCellX = iscell(X);
if ~isCellX
  X = {X};
end

% Dimensions
TS = size(X,2); % timesteps
if ~isempty(X)
  Q = size(X{1},2); % samples/series
else
  Q = 0;
end

% Allocate Outputs
Y = cell(1,TS);

% Time loop
for ts=1:TS

    % Input 1
    Xp1 = mapminmax_apply(X{1,ts},x1_step1);
    
    % Layer 1
    a1 = tansig_apply(repmat(b1,1,Q) + IW1_1*Xp1);
    
    % Layer 2
    a2 = tansig_apply(repmat(b2,1,Q) + LW2_1*a1);
    
    % Layer 3
    a3 = repmat(b3,1,Q) + LW3_2*a2;
    
    % Output 1
    Y{1,ts} = mapminmax_reverse(a3,y1_step1);
end

% Final Delay States
Xf = cell(1,0);
Af = cell(3,0);

% Format Output Arguments
if ~isCellX
  Y = cell2mat(Y);
end
end

% ===== MODULE FUNCTIONS ========

% Map Minimum and Maximum Input Processing Function
function y = mapminmax_apply(x,settings)
  y = bsxfun(@minus,x,settings.xoffset);
  y = bsxfun(@times,y,settings.gain);
  y = bsxfun(@plus,y,settings.ymin);
end

% Sigmoid Symmetric Transfer Function
function a = tansig_apply(n,~)
  a = 2 ./ (1 + exp(-2*n)) - 1;
end

% Map Minimum and Maximum Output Reverse-Processing Function
function x = mapminmax_reverse(y,settings)
  x = bsxfun(@minus,y,settings.ymin);
  x = bsxfun(@rdivide,x,settings.gain);
  x = bsxfun(@plus,x,settings.xoffset);
end
