function [y1] = net_function(x1)
%NET_FUNCTION neural network simulation function.
%
% Auto-generated by MATLAB, 25-Nov-2020 01:50:37.
% 
% [y1] = net_function(x1) takes these arguments:
%   x = 15xQ matrix, input #1
% and returns:
%   y = 2xQ matrix, output #1
% where Q is the number of samples.

%#ok<*RPMT0>

% ===== NEURAL NETWORK CONSTANTS =====

% Input 1
x1_step1.xoffset = [0.200011437481734;0.000287032703115897;0;0;0;0;-1.30256813748516e-05;0;-0.00594070155344859;-1.30256813748516e-05;0;-0.00594070155344859;-1.30256813748516e-05;0;-0.00594070155344859];
x1_step1.gain = [20.6580156213491;20.1115684549846;6.73795064545574;20.0536867183442;6.73795064545574;20.0536867183442;37249.8760295359;5.75597622331691;17.0020476160425;37249.8760295359;5.75597622331691;17.0020476160425;37249.8760295359;5.75597622331691;17.0020476160425];
x1_step1.ymin = -1;

% Layer 1
b1 = [1.8173492085204081548;1.7437299825784842167;1.6635929665146560463;-1.5997407242453893783;-1.5202268470489102015;1.4363316062005033746;1.3721723098421279019;-1.3001546188646866398;-1.2240444466788893418;1.1553545881237592408;1.0761367612674017646;0.99626993306568067954;0.92823925378078553372;-0.85415731883865375629;0.76842572038154943748;0.70296107122996132066;0.63244616852606050372;0.54524108251393110791;0.48689245595619740081;-0.39833242768855225968;0.33772225526094756809;-0.26344293293150816693;-0.17416743520745375795;0.11574352880298480195;-0.037276989078463176885;-0.046278796556467119427;0.10885962837998054697;0.18957867675280526409;0.26972339376944126643;-0.33828436911120784991;0.41168688128741842691;-0.48391170069622763128;0.55363956247393208976;-0.62213417242640356442;-0.70782346009579488744;0.7750781538642912416;-0.84154498400169552852;0.92559903966663159558;0.99909695390454678066;-1.0790297600902554187;1.1357601674864157282;1.2289929820359191126;-1.2887544792885736733;-1.3744633985526231168;1.4445803316654379778;-1.5195271074320644278;-1.5932624611129870829;-1.669536383868426066;1.7436059859110886183;1.8168583384997443186];
IW1_1 = [-0.77505778506412470463 -0.73817097371207107681 0.81835446112396037499 0.11366754911768937875 0.32048333969846803937 0.0228169195245519138 -0.22517042566889119981 0.0088159333705046857149 0.8310955856661181862 -0.59188532743439881134 -0.082571111635398722339 0.33594893993037461266 0.38461499308108731965 0.049590338146775214678 0.094516584227374245142;-0.25450550866490406765 0.73204861906815354988 -0.70782836580775498891 -0.62165114187838288462 0.2769444773986021735 -0.22798570712830873441 0.71075975734314111865 0.66871732536389028034 0.089100525438733868544 0.33321149728102272825 0.58644175670016696067 0.27599983045960974071 0.41799532809156214608 0.108547394418028742 0.079925536173603387025;-0.60344561249442840722 0.69518975171585062345 -0.69447449519280968211 -0.46276724191954965448 -0.75558753234557651801 -0.13190159893146141679 -0.3561884492936351343 0.34400527737057151612 -0.09122522874333792442 -0.59704308077646084385 0.24603497545147928749 0.26165575235352278582 0.14305702646420115354 -0.081409349989458756891 0.64661073795644763429;0.59681533649500317917 -0.012167225258843897967 0.45395626816375916901 -0.34095973694743092475 0.027376676451956630937 -0.36872369889428024958 0.047348662724847959127 -0.13656334450800483582 -0.26121127376374053686 0.40363427443712196485 0.36808080582623703414 0.94974279925784521605 0.11495543704562666276 0.80844540352942140249 -0.72011311208749473334;0.78796852554208907105 -0.1739377793890599655 -0.11662251923804183018 0.32730128005217434817 -0.27724516828915363176 -0.61685628410760973139 0.30392448489071971496 0.038087812954349410666 -0.33182368637600967443 0.73173230643941777895 -0.7215320222453122101 0.23079158655155326829 0.58102034180014161535 0.22867184787527317091 0.6077147982495506584;-0.38708486040172446208 -0.47680695029918335193 -0.72221725025500205231 0.65353576282332270786 -0.16485262923311233552 -0.67270558206818908964 0.16579808382667757249 0.03477203212322077519 0.3371686536391926281 0.67289118452975305029 0.65299360525548078016 -0.40926800064048413086 0.51533310336261273221 -0.030061362667986354924 0.25329207593516966934;-0.54680627879455956375 0.046835203287084466173 0.1118868957316431767 -0.76366849208314335762 0.61992485752720494219 -0.71078856914247956489 -0.28439502355191920158 -0.017505078340024574773 0.61717413862101888622 0.029906087551259164653 -0.035347477927631092143 -0.64022965103871021242 -0.076964781806955193111 -0.79285346516530086358 0.089355483238486202446;0.1065024604274041331 0.69452516007871045733 0.24985738300957058278 0.57704901662194985068 0.20201172525998536966 -0.087787918885794027912 0.20779304218836230911 0.42098342090051943387 -0.41383888712396049714 -0.79093845972825271851 -0.7065833581758304005 -0.29530379688099078761 0.4026224363533715267 0.29280366582303357648 0.71464284260401200743;0.099386756076301860374 0.6137131657035053145 -0.38931452219803014403 -0.15681276147070102867 -0.64732311267668862786 -0.66190219587031051685 -0.38822620426396309279 0.34173879349800095895 0.28610829232965873103 0.392521050438484842 0.68388463484243722235 0.55370169873249674986 0.72418785470833513251 0.22160638462066650778 -0.17705717257249731222;-0.58114384663165019607 0.69276860533621087423 0.090867424698927667936 0.64359886201681815177 -0.21839648389488228175 0.256484549985477428 0.40246666367869082803 -0.79627347427496630861 -0.48830008808921399055 -0.10965579245109090267 0.65131461898472242655 0.22866256995332251423 -0.55420808991981762581 -0.056902672169666837498 0.32331109548535552634;-0.28910444267900209381 -0.4338682118902457141 0.43771853805737653831 0.33713292472104150477 -0.74214699573533626786 0.15407183830883589004 -0.63459301985255633927 0.73607808733440305282 0.044747375775772431361 -0.71479459042410375957 -0.57567895956492087794 -0.24900276760698825118 -0.29525389446937588822 0.40135816585693734337 0.22745897373035264821;-0.49037769481624771117 -0.77040084207880665801 -0.29295732262083462594 0.59907618490704905856 0.60146010964725604708 0.24875624010214125725 0.29198119103368314065 0.62150193383524132695 0.34313475304893409357 -0.14320690741272143476 -0.41694358797456521071 -0.31986757316023695097 0.64460995456559921912 0.042174614959958008076 0.54946864681564777655;-0.25179446636393698622 -0.1262454856129223979 -0.12476678494246085105 0.67450024159863675166 0.52545366844709495702 -0.070508459929415137624 0.28554158834248216658 0.64307429343111444098 0.779691469889666533 0.49959236120831274075 0.33470822912905540125 0.47247154185109335733 0.46776722562298816976 0.64911170063694367816 0.37560482288589247535;0.35900367045926806497 -0.067316231451474417558 -0.47283563745274898027 0.33381829855161299081 0.67774323490865262531 -0.074980380743266003551 0.73960061557971878976 0.066021649942576796088 0.042884588322634288604 0.60800988236700148626 -0.16080682272176555214 0.22433967636921961497 0.76594494708375659986 -0.68119597783501006916 0.56600146630315117946;-0.27764226070416608838 0.68803103617097893796 0.71095110976755049315 0.42867694253732246956 -0.086146156240471657983 0.023887079774435306112 0.68283347695998120042 -0.2339282320204940091 0.26532382623401795652 0.42148603534910217272 -0.64873068962222946165 -0.56970301572743331509 -0.021513122703786295709 -0.49568847168569490913 0.5585517450425209196;-0.061013466162611731947 0.78547246199967524216 0.29956903787926164595 -0.28525445125187565143 -0.62966570231975638183 0.54017821093926055021 -0.35972302288673274617 -0.28768498542161385911 0.15008792353010916298 -0.5860944898252951063 0.2160744023233904243 0.78332886665787604397 0.278605886983154305 0.47280793502575790832 -0.53379213029682148761;-0.57916470245083406798 -0.58326909906957891128 0.29749333637740232872 -0.057817257415366168916 -0.59728985799695255565 -0.66534899892597509918 0.097570498289435855788 0.68744719316029112566 0.76954189465026234807 -0.43228905846692672332 0.36400830069150452717 0.43979022059421662982 -0.18510296635201056725 0.29272967253261578113 0.17255098493988363373;-0.61508981708920018594 0.63753837041555272425 -0.21636154391362352745 -0.62565323521915350291 0.43386933771501429158 0.81631577438110469735 -0.13742835787362425726 0.18419101044658298116 0.040907006915294030769 0.7646457426333818086 -0.016774407584745049116 0.099507284768478337922 -0.086457266164237822625 -0.25605889144367915966 -0.71437032983443826684;-0.49285330754771911055 0.54451897015735806207 0.74964934495546509119 -0.2973713377738925745 -0.25330942931663869011 0.11421582487654828586 0.45832888999930820884 0.3832392436096502264 -0.58079619616382260894 0.52082024240911783952 0.82948345990718608256 -0.15503525852842942045 -0.35330306112915799144 -0.29560114003871684751 0.38436008388316517115;0.2626251581355333875 0.63339844592369909382 -0.43025783620518975869 -0.48787577256189512687 -0.64967277382330590463 -0.47659508987124626911 -0.16037185290881411648 0.031431606400619822861 0.58332257893319894304 -0.56963713516864156183 0.63533171042289759978 -0.04257851957435788981 0.23967447114400822206 -0.59402817850350542184 0.49404193176070898552;-0.49348918971955857415 -0.0461618053314180668 -0.62621814481184234769 -0.53394002411674001962 0.21469351190779650818 0.2828119685163477115 0.27037626633756167704 -0.15746943513459699115 0.64487427737477920342 -0.45831491914702476853 -0.69556234906932035145 -0.5147093735379324464 0.35382649796489007432 0.55832350472921266071 -0.58487634813715494442;0.75856689112585384827 -0.5045700338914341776 -0.70771270823687304485 -0.30887270289659563005 -0.35829418878842878016 -0.28410565834260004259 -0.66972333386804938637 0.37555012061048748118 -0.18177379983271196862 -0.0045418056136046118867 0.22912023248672688802 0.28434146110612767977 0.57234899701111974224 -0.046910773210459923155 -0.7605413111964616224;0.53943263836394772515 -0.26507601582111528504 0.41643004793715115985 0.38542709477141068319 -0.6589334876729622259 -0.44568313002312820448 0.10667982671798387218 0.30505890484032249788 0.71623879577901428117 -0.34170779138566781397 0.42679685514151755044 0.28013648488513603896 0.63338649397326307611 0.69087775040212806577 0.3410218066209468879;-0.35761864806439463971 0.74424849069119503042 0.013167996973511064684 -0.20293204934482675372 -0.81125325242832402317 -0.73321509164631160083 -0.79639260521482890809 -0.14651403127015202865 -0.45188510916113699967 0.17811289039163147319 0.14403743476772437604 -0.0097959347889546768279 -0.052404694743750569741 -0.30291058501432910344 -0.61122033991529467478;0.61859945730578946854 0.1762422139506550911 0.59524001802469439504 -0.40196538431444767125 0.012591473766049464042 0.53625825030421681028 -0.10122837090852236652 0.58994088772004737997 0.69407107519902433435 -0.21476754544954132498 0.44261470473405228887 -0.20586836282040613111 -0.80270412141301406006 -0.13607992427905085675 -0.54515690546382788995;-0.24088949926532324253 -0.56429184670448417904 0.40235624200220210245 -0.32013794369069276113 -0.43658839805399884959 -0.1992328957529599931 -0.45167295446194360986 0.16020378982967511949 0.41388402690596304279 -0.52739291269856147792 -0.18859853971864218303 0.52815028307346245651 -0.58559889902704476139 0.72551520168704397573 0.74391341862706761301;0.23549431076027946275 0.41067674868213560613 -0.057516487685652054052 -0.25004118668338626286 -0.56899532688992970897 -0.029408673652787400282 -0.43502295712558780583 -0.12897631541380810694 -0.19511337164425635038 -0.43088691628207143047 0.75393145151634866075 -0.6600653458922179917 -0.70629166988266700589 0.65452164324665551565 -0.57088154930640477858;0.37307876639185250101 0.64198793075147531084 -0.029337766976494986798 -0.26599125147566932137 -0.6118462112054343649 0.58280669134950480181 -0.0082281346561054093808 0.21502669630495563347 -0.4932837197278163166 -0.40427202816000695762 -0.67784490916189688026 -0.59143198914451100556 0.52045237952918887991 0.5831966953669385223 -0.29752321647771601265;0.75948284197638693538 0.30266377329383581385 -0.17378185931458417501 -0.63798021517503178401 -0.083486826849063916489 0.73670608717067387339 0.35412496871631615747 -0.36614272097166411513 -0.60151790896419754517 0.03893397199079125931 -0.23786577103277492529 0.56050945457784306925 0.59189137939821068191 -0.13647240103195806826 -0.51809856946242083264;-0.6243609378648338204 0.80243957404262078459 -0.20866379264082271505 0.2632307642054394492 0.30335273956512714966 -0.074402047375383764671 -0.13486172733036996818 -0.030852426560613488427 0.51280352929947159435 0.17438920697250787084 0.84402781836265072801 -0.42996376253729984285 0.63393536713726095222 -0.56198758291982675583 -0.35938339509831512819;0.053768110467226459814 -0.065907800201817634544 0.34319929188972142509 -0.7586110650836864755 0.43129942305248814005 -0.98450632572520269115 -0.57855640030445765198 0.005897296260235074597 -0.010761898603847826553 -0.12173409480148797424 -0.8247701077677570547 -0.27019072309470826276 0.4586827379941589844 -0.01219659849044331737 -0.36636776635594575646;-0.80568554104196166143 -0.16225511724308688821 0.56838065266251414087 0.72312254155485122808 0.40399645570463937894 0.010366649697043291492 0.30121379913807577733 0.26416782786689524398 -0.37149963758021570248 -0.35433707066866060309 -0.19756122628345543224 -0.80815067155571695956 -0.229275746888197407 -0.60557508078493760273 -0.28556424339669955748;0.14547639749301596868 -0.52289594405797024113 0.22487514575738454248 -0.68976379055804037943 0.52539434760780823197 0.30080825129715677013 0.70825539413256766164 0.72494767726004716302 -0.150726131862787327 -0.30449416395502959531 0.14770590402751682113 -0.45665230984838672823 -0.68263640797365154889 -0.42546143802901664754 -0.30764098259957750603;-0.60634115763360008078 0.16136801035065562182 -0.18770506948392576274 -0.65807422581591412669 0.64366610171540272756 0.68288506390737568896 0.57886748194968040693 -0.10703638412714722161 -0.72213526929032090251 0.26095645396542171968 0.52835155151599655365 0.085265116446716707199 -0.50523971618970708874 -0.13404950074769550472 0.26237975936265456323;-0.24655460217040350845 0.051780280784143872808 0.68804784232032789593 0.2559037496532678424 0.074730892822377811835 -0.71690482910907593617 -0.66212703245719028988 -0.50692227670677059148 -0.56419606337787908679 0.32713699505241861099 -0.674804642721017367 0.058951565538531515431 0.064983323831091052702 -0.35962868461213087778 -0.67994693034706499279;0.37842065451446149638 0.47998522426681816677 0.42434876423814843482 0.13645164735714196413 -0.05656067732755098304 -0.61573559092362961653 0.69226987914553150816 -0.50689343413694787355 0.6118270963222984804 -0.14690834500582952704 -0.38945232115081629409 -0.31255764916449374491 0.64276199270220657489 0.34268926364136920171 -0.66190343715986221795;-0.3484615074620907027 0.17607259293921562193 0.55511698213102456112 -0.52433064626819136933 0.22309149958911786427 -0.20420004534328772827 0.3539758320247663459 -0.45758826181957334978 0.5376658556903085584 -0.30860297825133442551 0.24829785499137657645 0.76434759330487223039 -0.58562594574379678303 -0.72112821103857793759 -0.50646587993618219503;0.56160182288853721655 0.76743853471419531953 0.18340409949270902734 0.47605772779150118401 0.095384191649530131185 0.20850733692284065257 -0.59787871988061758177 -0.15994581058016546504 -0.82799605403727305486 -0.31285842556406634474 -0.37175547381900675425 -0.16219805507983559023 -0.71207939756262850217 0.42121910201781020966 -0.25884840471380138327;0.004360019829910977314 -0.46624205753128988849 -0.78892466941249150825 0.1655955003370791212 -0.034368674606725678478 0.52479289701730413853 -0.88724695770095474145 0.18390769837051812452 -0.059270623898298499532 -0.16981149795044234163 0.77268556094067331053 -0.75149563981636624543 0.0014810667170025190557 0.36433918345298110797 0.097724800744339951342;-0.61900271498930925507 -0.82681507559098477156 0.26085386719452641202 0.81234172275326399504 0.11964053306004872324 -0.35010129569430953334 -0.36457604658065795311 0.21658354081305664085 0.64922283223375154559 -0.49489798039927268558 -0.1542359507791730977 0.038923469664015331038 -0.35580115712479881696 0.57623611486861969766 -0.18031843982992723507;0.48015378388551210875 0.65139922960548091169 0.28587125578801436676 0.012169804913858330367 -0.59495322938378303324 -0.85713830801672730164 0.83282574559279509696 -0.45918270567800062443 -0.14473762887361488194 0.27037388450829519249 -0.29823328702444923399 0.36965163602367206996 0.2207898531223934091 -0.47795786987119087685 -0.11530906131623412658;0.33503571140437871101 -0.90453284385728871531 0.48382923804314031946 -0.11639697413306675233 -0.16752414401255488752 -0.45324002804837593139 0.060667528328011352534 -0.32999264780601966773 -0.20693675232570521438 -0.05729743986671407413 -0.39971252957182062948 0.70497772782342171816 1.0250857427529134203 -0.11458104350468058252 -0.05533134097859156858;-0.68850142848069484369 -0.38899110386190510757 -0.16665287129915079545 -0.10563262319934002553 0.0093535319284091134745 -0.17872434855921195962 -0.28970659026817235926 -0.64193701943140446531 0.38758065959095872044 -0.61834206871364505442 0.73917324444462262356 -0.099396321378381918832 -0.026372196737600273053 -0.71006239585467822995 -0.72898063739674090478;-0.75848826223645793299 0.090915226673944291025 -0.20510812162968922179 -0.028962529003608065981 0.10299300678564451972 -0.31616265267774096293 0.569329482907888762 0.16589347253120126369 -0.1585731530582072113 0.87305494471241218424 0.11876200033758377295 -0.82089141997680825646 -0.27287120994654134876 -0.74974254321592859185 -0.31370825122382139938;0.2095668368685583427 0.64625408120778615739 -0.57633262974457144523 -0.034896685807145610969 0.59612943863424638913 0.59744045784743748939 0.5285009058157043027 -0.49086514962561361708 0.37263807983835467441 0.54482182457700345513 0.19735940972541160532 -0.42478197647738330511 -0.66930397810835129402 -0.25457418480741106359 -0.3328487638910639923;-0.25482393384253548829 -0.60251051664307619937 0.13054718251201619106 -0.2178591203527744935 -0.19100595162991296228 0.029848535254567962888 0.60350001182407964073 0.37757252570950500248 0.53529711869582663475 0.29078172724904227664 -0.71126240678970498177 -0.60054461067205144875 -0.78919277303094126363 -0.49754546105425595526 0.39704710690167871467;-0.19501086503764608615 0.31318961960882574225 -0.37580427002013555571 -0.22121448498893533929 0.077025032826932710028 0.70462628489318879232 0.4295738151109622649 0.51173693742189729772 0.070617795668750316107 0.46199775899536166257 -0.56868005972071644649 -0.28240159573796269621 -0.72887894701502664585 0.6244010906481256562 -0.69617658913579427704;-0.44485085352548076054 -0.67387249950830929723 0.32869409398318821802 -0.24011876908646628825 0.45185301000010075212 0.54208243633128427863 0.52037042088655327543 -0.63401423591415695391 -0.32281375537363743433 0.60885312849112227518 0.57790268053681437266 0.39108578545719452357 0.54178817244819688081 0.23335890998530059437 -0.062115493754746495259;0.59467306671310571353 -0.227330951752452326 -0.30367929359806261624 0.72923920333981251396 0.46225745523190137076 0.47671826400431482895 0.54304275035470428445 -0.56858114969081141599 0.51500577199310348941 0.35155423043388878135 -0.38563987984336300929 0.40242309301842638103 -0.44103542342647761298 -0.56104968339137961664 -0.04759884564633774795;0.37760994076654391671 -0.72760713155693335086 0.69892383616861386564 0.54259541648147735504 0.61127488627072312788 0.14252720469204713249 0.56417727705568598839 0.15326934784330217831 -0.13823169744023527938 -0.46641657407375719524 -0.10691910943709252713 0.23656311782121600129 0.41215927875250801815 0.047685648075482166275 0.79708425413992023412];

% Layer 2
b2 = [1.3730634586071279735;-1.3933345234610736707];
LW2_1 = [-0.30720372493072600761 -0.23780951372991190884 0.33197753370541210893 0.18254916935426618307 -0.17446057829098066128 0.10569632566618826497 -0.18521137750806476729 0.17031035183375617392 0.14799628869859030034 -0.14363737003753124233 -0.024818638409871189576 0.19334042674557969099 -0.12273477833933321701 0.1560785031697151104 0.30186650428178690708 0.11817082517625929206 -0.20373648123641230345 0.33699935363270316913 -0.28194313744654020404 -0.27341201343835941362 -0.19255410669612235686 0.16499616481643178401 -0.25427221012231299158 -0.0056391046555897090739 -0.1007376649674253527 0.27686963900478034351 -0.14537525349400853836 0.051934773771566432321 -0.16876983836318740217 0.0060558774291680148028 -0.3849361093098565556 -0.10151970600913556853 0.074722506431963625628 -0.28457289044947819967 0.16345974145130920396 0.17764088173323097641 -0.20420080766769943548 0.2924898046208976865 0.24724682900329877921 0.025906553426329352596 0.22391559349557915715 -0.19718197209514912172 -0.26072502584563772565 0.14848524838794141534 0.14152039153847181807 -0.18277215577949276759 0.034476391520006095803 0.20446236943203638381 -0.080483042492774409249 0.11985352079558775351;-0.24877703010739382616 -0.29174534300939558573 0.34187077437225932286 -0.14350686543685720054 -0.0085507730866963716637 -0.25547196726101212283 -0.071665933788107580305 -0.00087582055133569175487 0.035595362788481264837 0.279328542305357308 0.26004112033311033159 0.13363290460638088675 -0.20725660443730334337 -0.27394640536130310249 -0.12794920782155999595 0.24588829318430965865 -0.038098732966657194998 0.1118143780672903459 -0.10077264041511600767 0.29527002538378810392 -0.17484857162664282915 0.03936850965787149631 0.17588412887143992092 0.28757313185006910805 -0.14379834807786909256 -0.17802303926680862478 -0.26668538817093839777 0.26610127838482822149 0.25968230527525165696 -0.2650926487257329045 -0.12339518423293535654 -0.25987892927239286678 -0.12634811630176404074 -0.16025503419692710416 0.14399121705341799693 0.16468518216229169338 0.18260567967884405727 0.093099017116662685645 0.043841543393378229476 -0.10743459022746301712 -0.21271949277485596719 0.074617933465034730345 0.28058483295649994105 -0.25482160663745412332 0.32377656183872272067 -0.18568650362717198377 0.28021972963457297823 0.015489664308037186247 -0.13228413918307319053 0.21177604760468735079];

% Output 1
y1_step1.ymin = -1;
y1_step1.gain = [49.9650705341354;114.346721306337];
y1_step1.xoffset = [-0.029682615757194;-0.00751743477949805];

% ===== SIMULATION ========

% Dimensions
Q = size(x1,2); % samples

% Input 1
xp1 = mapminmax_apply(x1,x1_step1);

% Layer 1
a1 = tansig_apply(repmat(b1,1,Q) + IW1_1*xp1);

% Layer 2
a2 = tansig_apply(repmat(b2,1,Q) + LW2_1*a1);

% Output 1
y1 = mapminmax_reverse(a2,y1_step1);
end

% ===== MODULE FUNCTIONS ========

% Map Minimum and Maximum Input Processing Function
function y = mapminmax_apply(x,settings)
  y = bsxfun(@minus,x,settings.xoffset);
  y = bsxfun(@times,y,settings.gain);
  y = bsxfun(@plus,y,settings.ymin);
end

% Sigmoid Symmetric Transfer Function
function a = tansig_apply(n,~)
  a = 2 ./ (1 + exp(-2*n)) - 1;
end

% Map Minimum and Maximum Output Reverse-Processing Function
function x = mapminmax_reverse(y,settings)
  x = bsxfun(@minus,y,settings.ymin);
  x = bsxfun(@rdivide,x,settings.gain);
  x = bsxfun(@plus,x,settings.xoffset);
end
