function [Y,Xf,Af] = neural_function(X,~,~)
%NEURAL_FUNCTION neural network simulation function.
%
% Auto-generated by MATLAB, 03-Dec-2020 18:40:34.
% 
% [Y] = neural_function(X,~,~) takes these arguments:
% 
%   X = 1xTS cell, 1 inputs over TS timesteps
%   Each X{1,ts} = 15xQ matrix, input #1 at timestep ts.
% 
% and returns:
%   Y = 1xTS cell of 1 outputs over TS timesteps.
%   Each Y{1,ts} = 2xQ matrix, output #1 at timestep ts.
% 
% where Q is number of samples (or series) and TS is the number of timesteps.

%#ok<*RPMT0>

% ===== NEURAL NETWORK CONSTANTS =====

% Input 1
x1_step1.xoffset = [0.0011718945346203;0.000820725351164842;0.000215464196735349;0.000429625472289752;0.00547560571593431;0.000261950750469753;0.000509349624569166;0.000908945115619342;7.55276031083607e-06;0.00143357910080821;0.000567309448412323;0.000166700091954963;0.000205048258120843;0.00462665194919576;0.000874200743278819];
x1_step1.gain = [2.00291998018313;2.00326032826969;2.00057897887873;2.00342685208708;2.0147882695141;2.00179593993949;2.00385146038962;2.0033353094959;2.00002569180754;2.00472381478526;2.00249474929059;2.0036620716018;2.00158109912493;2.01050240183912;2.00566350092062];
x1_step1.ymin = -1;

% Layer 1
b1 = [0.054577365517616271973;0.041182208806276321411;-0.031560461968183517456;-0.00012722703104373067617;0.034358128905296325684;0.00039230647962540388107;0.03138861432671546936;-0.022753154858946800232;0.041964598000049591064;-0.0084948372095823287964;-0.016485443338751792908;-0.014463505707681179047;0.050631225109100341797;0.0074618170037865638733;0.013478811830282211304;0.016071798279881477356;-0.010354093275964260101;0.045674346387386322021;0.0044058822095394134521;-0.042011041194200515747;0.031164199113845825195;-0.032353263348340988159;-0.010865814052522182465;0.020998805761337280273;0.043464314192533493042;-0.014548965729773044586;0.0051077581010758876801;0.025937268510460853577;0.052504863590002059937;0.037860505282878875732;0.0098092379048466682434;-0.090330161154270172119;-0.024232551455497741699;-0.0050686160102486610413;0.022729480639100074768;0.023917952552437782288;-0.042699761688709259033;-0.050887215882539749146;0.0015220526838675141335;-0.040871508419513702393;-0.00033366246498189866543;0.066405288875102996826;0.046196885406970977783;0.002986291889101266861;0.014833153225481510162;0.006327280774712562561;0.0055474583059549331665;-0.0077370596118271350861;0.038674414157867431641;-0.078836858272552490234];
IW1_1 = [0.2461500018835067749 -0.27696886658668518066 0.1985705941915512085 -0.18825381994247436523 -0.23325619101524353027 0.25105217099189758301 0.095842853188514709473 0.19580931961536407471 -0.054970338940620422363 -0.19994911551475524902 0.0023749410174787044525 -0.19959905743598937988 -0.036458924412727355957 0.22868992388248443604 0.15279123187065124512;0.095128946006298065186 -0.22730006277561187744 0.13797107338905334473 -0.22612141072750091553 -0.29718515276908874512 -0.059982303529977798462 -0.066525168716907501221 0.17862474918365478516 0.026542408391833305359 0.050377599895000457764 -0.14958135783672332764 0.076478295028209686279 0.040392298251390457153 -0.2724049687385559082 0.077281653881072998047;0.16147039830684661865 0.21830980479717254639 -0.17483437061309814453 -0.081198640167713165283 -0.13683383166790008545 0.021920610219240188599 -0.044701538980007171631 -0.0068608839064836502075 -0.16412331163883209229 -0.045827835798263549805 -0.019249703735113143921 0.0080543756484985351562 0.099379234015941619873 0.30534276366233825684 0.018639834597706794739;-0.075780950486660003662 -0.26931479573249816895 0.027684494853019714355 -0.027438698336482048035 0.081742510199546813965 -0.14777460694313049316 0.097341135144233703613 -0.083107993006706237793 -0.16650156676769256592 0.0094405896961688995361 -0.097767844796180725098 -0.024672005325555801392 -0.036737494170665740967 -0.25411957502365112305 0.0067681097425520420074;0.0042916485108435153961 0.062426447868347167969 0.080349400639533996582 -0.14537543058395385742 -0.071572028100490570068 0.0098342578858137130737 0.030017245560884475708 0.15842697024345397949 0.27867841720581054688 0.040725205093622207642 0.1687552332878112793 -0.30025577545166015625 -0.0077619394287467002869 0.038742896169424057007 0.20736496150493621826;0.25334081053733825684 -0.043353628367185592651 -0.14325940608978271484 0.20643879473209381104 -0.10736304521560668945 -0.0099997017532587051392 -0.090212054550647735596 0.030266707763075828552 0.17423152923583984375 0.13346856832504272461 -0.11479542404413223267 -0.06965777277946472168 0.050590682774782180786 -0.046158216893672943115 0.017356434836983680725;-0.043521065264940261841 0.15144944190979003906 -0.27342656254768371582 0.27500903606414794922 -0.13789168000221252441 0.11534926295280456543 -0.058097351342439651489 -0.24779468774795532227 -0.0029452156741172075272 0.25504949688911437988 0.22134526073932647705 -0.27747860550880432129 -0.15690183639526367188 -0.17205280065536499023 0.0032655834220349788666;-0.065793111920356750488 0.0029601547867059707642 -0.1860592961311340332 0.16186439990997314453 0.03654339909553527832 -0.092485219240188598633 0.20830731093883514404 0.2213862687349319458 0.22446829080581665039 -0.0024594359565526247025 -0.11565238237380981445 -0.21897497773170471191 -0.01029673498123884201 0.20561257004737854004 -0.09135411679744720459;0.11638199537992477417 0.29024598002433776855 -0.25362113118171691895 -0.018461871892213821411 -0.19022761285305023193 0.039350166916847229004 -0.073365949094295501709 0.17510007321834564209 0.07447980344295501709 -0.10619343817234039307 0.11082637310028076172 -0.25694143772125244141 0.19288730621337890625 0.096076719462871551514 -0.27202379703521728516;0.22578366100788116455 0.18485900759696960449 0.02715091407299041748 -0.25152325630187988281 -0.11915095895528793335 -0.26437351107597351074 -0.17007488012313842773 -0.1226549297571182251 -0.15844647586345672607 -0.035431392490863800049 -0.012248366139829158783 0.25043988227844238281 0.2176316678524017334 -0.12146414071321487427 0.24602694809436798096;-0.1965634077787399292 0.19387482106685638428 -0.045935656875371932983 0.26475504040718078613 0.27458104491233825684 0.041675679385662078857 0.12391470372676849365 -0.16976629197597503662 0.031707610934972763062 0.080004759132862091064 0.18198011815547943115 0.28698620200157165527 -0.14510387182235717773 -0.10568833351135253906 -0.17829205095767974854;0.19394856691360473633 -0.19000457227230072021 -0.086530886590480804443 -0.18063265085220336914 -0.19515524804592132568 -0.031430158764123916626 0.13260486721992492676 0.22928574681282043457 0.13057291507720947266 -0.19601768255233764648 -0.26764065027236938477 0.018295593559741973877 0.09218969196081161499 0.26377272605895996094 0.31980827450752258301;0.069322019815444946289 -0.24613329768180847168 -0.050057977437973022461 0.1542542576789855957 0.038492560386657714844 0.23319505155086517334 -0.21986028552055358887 0.094090312719345092773 0.068703256547451019287 0.32374337315559387207 0.28220885992050170898 0.054376460611820220947 -0.11032406240701675415 -0.19524961709976196289 0.12593516707420349121;0.16839671134948730469 -0.20133976638317108154 -0.086309522390365600586 -0.20713274180889129639 -0.052567213773727416992 0.090336024761199951172 0.20933109521865844727 -0.025436850264668464661 -0.26908564567565917969 -0.1249850839376449585 -0.2766831815242767334 -0.087644055485725402832 -0.082091726362705230713 0.004184799734503030777 0.035477362573146820068;0.11676944047212600708 0.10422471165657043457 0.23741561174392700195 -0.24284544587135314941 0.040846385061740875244 -0.13717560470104217529 0.063017547130584716797 -0.13246162235736846924 0.26256322860717773438 -0.051622822880744934082 -0.076942525804042816162 0.0027029174380004405975 -0.069335155189037322998 0.075416088104248046875 -0.17622537910938262939;0.049436889588832855225 0.21147786080837249756 -0.1444311290979385376 0.014394345693290233612 -0.11960688233375549316 0.19549985229969024658 0.0031798514537513256073 0.11625865846872329712 0.017214031890034675598 -0.016726939007639884949 0.10797537118196487427 -0.1965630948543548584 -0.0043267779983580112457 0.061558809131383895874 -0.035299263894557952881;-0.070087566971778869629 0.15847004950046539307 0.29398015141487121582 -0.22448068857192993164 -0.21031963825225830078 -0.13364918529987335205 -0.048141755163669586182 -0.023830423131585121155 -0.22567288577556610107 0.2955347895622253418 0.18090365827083587646 -0.074320316314697265625 -0.2824363410472869873 0.25463569164276123047 -0.25155189633369445801;-0.079041860997676849365 -0.073680095374584197998 0.0220021028071641922 -0.21910385787487030029 -0.25143936276435852051 -0.055510602891445159912 0.069919586181640625 0.27025452256202697754 0.21673555672168731689 0.24634529650211334229 0.058262996375560760498 -0.030431538820266723633 -0.13323014974594116211 -0.16089808940887451172 -0.01034844573587179184;0.14962399005889892578 -0.167482033371925354 0.14350183308124542236 -0.24704304337501525879 -0.0028060255572199821472 0.17445722222328186035 -0.13940754532814025879 0.15507133305072784424 -0.090710349380970001221 0.14545434713363647461 -0.1327943652868270874 0.0834616050124168396 -0.071158677339553833008 0.042561743408441543579 -0.20231859385967254639;0.26166623830795288086 0.020365001633763313293 0.25814878940582275391 0.13857418298721313477 -0.30600878596305847168 0.20479990541934967041 0.20900227129459381104 0.27948746085166931152 0.23982979357242584229 -0.25587192177772521973 0.1641162186861038208 0.23556821048259735107 0.01406100299209356308 -0.32590019702911376953 -0.30646127462387084961;0.041914995759725570679 -0.17584213614463806152 -0.085287906229496002197 0.012431069277226924896 0.18711845576763153076 -0.20032370090484619141 -0.11840065568685531616 -0.26863509416580200195 0.19941572844982147217 0.014698935672640800476 0.041643489152193069458 0.056496728211641311646 0.12102020531892776489 -0.23106434941291809082 0.22104959189891815186;-0.066572628915309906006 -0.20581817626953125 0.26355442404747009277 0.12549085915088653564 -0.22472874820232391357 -0.32307136058807373047 0.019639654085040092468 -0.28147920966148376465 -0.028584400191903114319 0.033672470599412918091 -0.2505728304386138916 -0.11902908235788345337 0.036591615527868270874 0.24474680423736572266 -0.051868580281734466553;0.071045935153961181641 -0.2180960923433303833 0.050469353795051574707 0.069395743310451507568 0.085493713617324829102 -0.19188939034938812256 -0.052718613296747207642 -0.091981507837772369385 -0.18903723359107971191 -0.17830231785774230957 -0.12320020049810409546 0.067269988358020782471 0.11016321927309036255 0.11516374349594116211 0.061545271426439285278;-0.2457510530948638916 -0.0029006169643253087997 0.062899976968765258789 -0.036978539079427719116 -0.21306161582469940186 -0.11851297318935394287 -0.10110794752836227417 0.097452946007251739502 -0.022739225998520851135 0.12424758076667785645 -0.048373006284236907959 -0.18220658600330352783 0.018271021544933319092 0.066268488764762878418 0.30783683061599731445;-0.18704947829246520996 0.23432266712188720703 -0.13851954042911529541 0.28622379899024963379 0.21341784298419952393 0.11000136286020278931 0.14887475967407226562 -0.10759902745485305786 -0.19395372271537780762 -0.26596936583518981934 -0.1496203988790512085 -0.25335878133773803711 0.033783223479986190796 -0.011594393290579319 -0.12592455744743347168;-0.095382027328014373779 -0.043266214430332183838 -0.28317028284072875977 0.15734611451625823975 0.12102294713258743286 -0.10093361884355545044 0.073748223483562469482 -0.1514988243579864502 0.07625589519739151001 -0.0015198520850390195847 0.23000343143939971924 -0.21959283947944641113 -0.061952278017997741699 -0.3127676546573638916 0.061521429568529129028;0.17381666600704193115 -0.2321163862943649292 0.1268526613712310791 0.068650886416435241699 -0.17158119380474090576 -0.068425603210926055908 0.1480681002140045166 0.085741259157657623291 -0.13821491599082946777 -0.11716791242361068726 0.24230313301086425781 0.0059379111044108867645 0.014612124301493167877 0.051668755710124969482 0.094148360192775726318;0.10325358062982559204 0.25188422203063964844 -0.10276392847299575806 -0.14301410317420959473 -0.050322186201810836792 -0.057882770895957946777 -0.034794989973306655884 0.098910152912139892578 -0.22334474325180053711 -0.076313443481922149658 0.17746087908744812012 0.24388711154460906982 0.20795652270317077637 -0.23714521527290344238 -0.091363258659839630127;-0.17332971096038818359 -0.16744309663772583008 0.050271138548851013184 0.011691217310726642609 0.16463351249694824219 -0.13338634371757507324 -0.14718823134899139404 0.12607334554195404053 -0.02933745458722114563 0.22605133056640625 -0.21920260787010192871 0.097262375056743621826 -0.091618970036506652832 -0.13863345980644226074 -0.0074653667397797107697;-0.0085994908586144447327 -0.097333796322345733643 -0.076125584542751312256 -0.29673123359680175781 -0.045682277530431747437 0.1023000180721282959 -0.22809056937694549561 -0.18679632246494293213 -0.23915708065032958984 0.21873106062412261963 -0.20363757014274597168 0.17065073549747467041 -0.04187930375337600708 -0.083800770342350006104 0.29757264256477355957;-0.15596012771129608154 -0.23804713785648345947 -0.095007494091987609863 -0.19787985086441040039 0.2183027416467666626 0.20055741071701049805 0.10152105242013931274 0.071052908897399902344 0.083333194255828857422 -0.098668828606605529785 -0.10722625255584716797 -0.27139490842819213867 -0.029577804729342460632 0.10028640180826187134 0.10912773013114929199;0.18266268074512481689 0.052521593868732452393 -0.26438260078430175781 0.029755366966128349304 -0.0076476526446640491486 -0.089381456375122070312 -0.20603883266448974609 -0.34283369779586791992 0.1492862701416015625 0.079505339264869689941 -0.025401663035154342651 -0.021578494459390640259 0.19661685824394226074 0.2676563560962677002 0.23761864006519317627;0.095179393887519836426 0.15935568511486053467 0.21380753815174102783 0.22671794891357421875 -0.07564093172550201416 -0.12772651016712188721 0.13267797231674194336 -0.15164233744144439697 -0.097825989127159118652 -0.18407303094863891602 0.21864677965641021729 -0.15264624357223510742 -0.0016746222972869873047 -0.024017287418246269226 -0.15558661520481109619;-0.027370389550924301147 -0.22987669706344604492 0.20097278058528900146 0.077913686633110046387 0.034743994474411010742 -0.19273804128170013428 0.032198686152696609497 0.11334287375211715698 0.087004609405994415283 -0.18046149611473083496 0.12650966644287109375 0.16882461309432983398 0.051381371915340423584 -0.31319379806518554688 0.0030480215791612863541;-0.23514208197593688965 0.26112028956413269043 -0.076084636151790618896 -0.33680817484855651855 -0.14637994766235351562 0.096819393336772918701 -0.089184351265430450439 0.11022019386291503906 -0.069193318486213684082 -0.16959495842456817627 -0.12102755159139633179 -0.027800265699625015259 0.19249162077903747559 -0.15046937763690948486 0.12813830375671386719;0.25883975625038146973 -0.058032773435115814209 0.11164338141679763794 0.092710889875888824463 0.052055049687623977661 0.035963609814643859863 0.040714830160140991211 -0.11636646091938018799 -0.15683546662330627441 0.22985266149044036865 -0.041929367929697036743 -0.22722572088241577148 -0.22243934869766235352 -0.22943106293678283691 0.16932876408100128174;-0.0033617692533880472183 -0.096880234777927398682 0.011423716321587562561 0.16033767163753509521 -0.168270111083984375 0.16655060648918151855 0.041069623082876205444 0.14013677835464477539 0.17146994173526763916 -0.072415925562381744385 -0.054276108741760253906 0.2096602022647857666 0.07339623570442199707 -0.080004528164863586426 -0.062596537172794342041;-0.16408705711364746094 0.16603764891624450684 0.010183542035520076752 -0.011289617046713829041 0.24906851351261138916 0.041040915995836257935 0.13058064877986907959 0.053327884525060653687 -0.090894311666488647461 -0.22704583406448364258 0.333160400390625 0.26475161314010620117 0.036649424582719802856 -0.13032755255699157715 -0.14577205479145050049;-0.10025955736637115479 -0.20866437256336212158 0.13629941642284393311 -0.20547635853290557861 0.24818998575210571289 -0.0040882104076445102692 0.1303304135799407959 0.11142595112323760986 -0.146204337477684021 -0.083419889211654663086 0.19416207075119018555 0.28933703899383544922 0.0058604665100574493408 0.1105698123574256897 -0.19128534197807312012;-0.0068502761423587799072 -0.29447990655899047852 0.23259864747524261475 0.077432915568351745605 0.12861360609531402588 -0.08766495436429977417 -0.14403773844242095947 0.097400121390819549561 0.19112212955951690674 -0.1474046558141708374 -0.11749677360057830811 -0.18456387519836425781 0.22564940154552459717 0.1084671318531036377 0.26854711771011352539;-0.11689469963312149048 0.05900453031063079834 -0.007383943069726228714 0.11321460455656051636 0.16053998470306396484 -0.15438972413539886475 0.0062161632813513278961 0.33298268914222717285 -0.15763862431049346924 -0.16348753869533538818 -0.072673633694648742676 0.28793585300445556641 0.10963929444551467896 -0.13896895945072174072 -0.16959914565086364746;-0.1789996027946472168 -0.27344751358032226562 -0.12310923635959625244 0.00014629098586738109589 -0.16100651025772094727 0.15365776419639587402 -0.05357282981276512146 -0.14856360852718353271 0.019722230732440948486 0.11176464706659317017 -0.029954459518194198608 0.13094948232173919678 -0.075086347758769989014 0.082604289054870605469 -0.27636566758155822754;0.25501397252082824707 0.087202854454517364502 0.12813153862953186035 0.23083533346652984619 -0.21401344239711761475 0.1848557591438293457 -0.088822469115257263184 0.21155861020088195801 -0.16994492709636688232 0.025013329461216926575 -0.12911760807037353516 0.20374305546283721924 0.12328783422708511353 -0.11168043315410614014 -0.080612555146217346191;0.031995199620723724365 -0.2445659637451171875 0.093657180666923522949 -0.013590142130851745605 0.11525393277406692505 0.19380944967269897461 0.20953238010406494141 -0.21192280948162078857 0.20816871523857116699 0.087190076708793640137 0.098945125937461853027 -0.33235189318656921387 -0.17291621863842010498 -0.20534498989582061768 0.21001248061656951904;-0.19678862392902374268 0.27864971756935119629 -0.23901598155498504639 0.08081722259521484375 -0.16002839803695678711 0.02436162903904914856 -0.16942380368709564209 0.18367920815944671631 0.18878172338008880615 0.139334067702293396 -0.089591898024082183838 -0.19500300288200378418 0.0060748434625566005707 -0.18385496735572814941 -0.16136878728866577148;0.16543918848037719727 -0.048028796911239624023 0.096431240439414978027 -0.2504647374153137207 0.12535963952541351318 0.25729274749755859375 -0.029046248644590377808 0.096119508147239685059 -0.032192014157772064209 0.15565316379070281982 0.24009871482849121094 0.063754625618457794189 -0.1091297641396522522 -0.16248153150081634521 -0.15873794257640838623;0.19310396909713745117 0.28172534704208374023 -0.12331968545913696289 -0.073957413434982299805 0.077880874276161193848 0.22691765427589416504 -0.0030886717140674591064 -0.25601825118064880371 0.13915073871612548828 0.058989342302083969116 -0.11579626798629760742 -0.24559283256530761719 -0.15703094005584716797 -0.09021453559398651123 -0.044255249202251434326;0.040301281958818435669 0.04272207990288734436 -0.17625553905963897705 -0.20822432637214660645 -0.10219257324934005737 0.053075179457664489746 -0.0062423082999885082245 -0.076242223381996154785 0.0435219593346118927 0.15924017131328582764 -0.056298308074474334717 -0.20113861560821533203 -0.13641925156116485596 -0.23934058845043182373 0.0010369254741817712784;-0.26500666141510009766 0.044545989483594894409 -0.23984424769878387451 -0.002980275079607963562 -0.091129764914512634277 0.15002161264419555664 0.011494969949126243591 0.1333840787410736084 0.12700074911117553711 -0.15698143839836120605 -0.014628258533775806427 -0.2930984795093536377 0.08025334775447845459 0.27944517135620117188 0.18119379878044128418;-0.041778422892093658447 -0.22763647139072418213 -0.036807421594858169556 -0.22750246524810791016 -0.11225812137126922607 0.016268376260995864868 -0.10611288249492645264 -0.15786342322826385498 0.22624076902866363525 -0.14663797616958618164 0.12673653662204742432 -0.070766016840934753418 0.10382325202226638794 -0.048992887139320373535 0.035787768661975860596];

% Layer 2
b2 = [-0.010968108661472797394;0.0011232065735384821892;-0.00023638262064196169376;0.018598448485136032104;0.021827220916748046875;0.0094496207311749458313;-0.0018526309868320822716;0.016568528488278388977;-0.013837580569088459015;-0.0053172297775745391846;-0.036910336464643478394;0.00049017235869541764259;0.0021404011640697717667;-0.023853302001953125;0.0040379753336310386658;-0.012035909108817577362;0.013704423792660236359;0.031437493860721588135;0.0016369968652725219727;-0.016116010025143623352;-0.0094300042837858200073;-0.010577896609902381897;0.029136294499039649963;-0.016363024711608886719;0.052861962467432022095;-0.024664981290698051453;0.031559452414512634277;-0.0024550191592425107956;0.054773475974798202515;-0.006352933589369058609];
LW2_1 = [0.1859715580940246582 -0.16034425795078277588 0.012523674406111240387 0.15087331831455230713 0.12326388806104660034 0.10153625160455703735 -0.15345683693885803223 -0.14675655961036682129 -0.067176192998886108398 0.24932456016540527344 -0.056675940752029418945 0.19232599437236785889 -0.18659523129463195801 -0.27256381511688232422 -0.14160630106925964355 0.22190596163272857666 -0.10008904337882995605 -0.18918313086032867432 -0.13296613097190856934 0.022138621658086776733 -0.16130754351615905762 -0.19557803869247436523 -0.22723919153213500977 0.20749050378799438477 -0.0022484767250716686249 -0.18892928957939147949 0.036328531801700592041 -0.13497345149517059326 -0.012283504940569400787 -0.07910286635160446167 -0.050041362643241882324 0.13166469335556030273 0.021126037463545799255 0.20931638777256011963 0.062803894281387329102 -0.084239989519119262695 -0.17719458043575286865 0.036193024367094039917 -0.069336079061031341553 -0.10029225796461105347 -0.050619069486856460571 -0.19130028784275054932 0.1845629960298538208 -0.042151696979999542236 -0.048375852406024932861 0.11801894009113311768 0.11395881325006484985 0.16268125176429748535 0.24747732281684875488 -0.20946794748306274414;0.24930597841739654541 0.19178909063339233398 0.19060882925987243652 0.21307078003883361816 0.036710031330585479736 -0.3234176337718963623 -0.034046143293380737305 0.12158807367086410522 0.05954475700855255127 -0.10110229253768920898 0.24834731221199035645 -0.25606968998908996582 0.17490433156490325928 -0.26077657938003540039 0.26391872763633728027 0.16980284452438354492 0.08186225593090057373 -0.26172712445259094238 -0.18468567728996276855 0.25341272354125976562 -0.10977027565240859985 -0.054087691009044647217 -0.20079338550567626953 0.13675571978092193604 0.065422415733337402344 0.13003154098987579346 0.23373621702194213867 0.11034713685512542725 0.15805199742317199707 0.048084732145071029663 -0.18259793519973754883 0.12894795835018157959 -0.055040512233972549438 -0.11953599750995635986 0.10635386407375335693 -0.050376791507005691528 0.098153591156005859375 -0.26134002208709716797 -0.14777733385562896729 0.21842505037784576416 0.25063762068748474121 0.14778546988964080811 -0.033902943134307861328 -0.25915628671646118164 0.0019847771618515253067 -0.23894329369068145752 0.021745968610048294067 0.19885802268981933594 -0.054917771369218826294 -0.037486337125301361084;-0.26426404714584350586 0.11217468976974487305 0.033123254776000976562 0.061945494264364242554 0.26979109644889831543 -0.16379331052303314209 -0.1267553865909576416 -0.016389211639761924744 -0.15584959089756011963 -0.055619452148675918579 0.11068896949291229248 -0.0054450342431664466858 -0.25392448902130126953 -0.038343068212270736694 -0.088756531476974487305 -0.084284417331218719482 0.12285802513360977173 0.15044045448303222656 0.14181122183799743652 -0.21908532083034515381 0.042717222124338150024 -0.12404245883226394653 -0.13854335248470306396 -0.027945669367909431458 -0.24921146035194396973 -0.14334695041179656982 -0.26350843906402587891 -0.096257649362087249756 -0.18350204825401306152 -0.24447664618492126465 0.12025852501392364502 0.2408161163330078125 -0.062667720019817352295 0.1753266751766204834 0.24449011683464050293 -0.023802649229764938354 0.17894220352172851562 0.043597780168056488037 -0.11956095695495605469 -0.056643445044755935669 -0.23245665431022644043 0.15526571869850158691 0.045076958835124969482 0.17841058969497680664 0.039605040103197097778 0.24485942721366882324 -0.084428504109382629395 -0.03819049149751663208 0.18009436130523681641 0.21650263667106628418;0.051436118781566619873 -0.19343264400959014893 0.19579641520977020264 -0.20978726446628570557 -0.25825133919715881348 -0.0080480799078941345215 -0.070146538317203521729 0.21307352185249328613 0.13106726109981536865 0.10937432199716567993 -0.14006058871746063232 -0.036426056176424026489 0.079409368336200714111 -0.23363892734050750732 -0.15783464908599853516 0.2668043673038482666 -0.10672278702259063721 -0.15678040683269500732 -0.001618701498955488205 0.077956832945346832275 0.033409688621759414673 -0.15898421406745910645 0.016125595197081565857 0.13029350340366363525 -0.10886350274085998535 0.16791570186614990234 0.23761130869388580322 0.20400255918502807617 -0.22069405019283294678 -0.061594486236572265625 -0.3199107050895690918 -0.24171729385852813721 0.072162002325057983398 0.10081743448972702026 0.071216017007827758789 0.22914627194404602051 -0.13585013151168823242 -0.11168917268514633179 0.070507518947124481201 -0.13460239768028259277 -0.027675170451402664185 0.2613137662410736084 -0.22627454996109008789 0.24655881524085998535 0.18543596565723419189 -0.13817898929119110107 0.097205221652984619141 -0.14185491204261779785 -0.15714283287525177002 0.070928812026977539062;-0.15055616199970245361 -0.10720748454332351685 -0.093926735222339630127 0.17885170876979827881 -0.013227134011685848236 0.080992631614208221436 -0.25893536210060119629 -0.2390728294849395752 0.06031452864408493042 0.0005560657009482383728 0.26714590191841125488 -0.053153190761804580688 -0.15178990364074707031 -0.27744194865226745605 0.085497453808784484863 -0.027667654678225517273 0.054168384522199630737 0.092872232198715209961 0.070179186761379241943 0.05798495560884475708 -0.24290107190608978271 -0.21468445658683776855 -0.12641568481922149658 -0.060028459876775741577 0.057514633983373641968 -0.12578280270099639893 0.087220780551433563232 -0.026331553235650062561 0.16466964781284332275 0.21293181180953979492 -0.15819475054740905762 -0.24067373573780059814 -0.063100278377532958984 0.23843939602375030518 -0.0087275961413979530334 0.16074296832084655762 -0.20195899903774261475 0.21975643932819366455 0.15770286321640014648 0.068312533199787139893 0.20797556638717651367 -0.032225683331489562988 -0.17327098548412322998 0.01537492312490940094 0.029384298250079154968 0.19913123548030853271 0.1961453855037689209 -0.14155451953411102295 0.037963200360536575317 0.22623361647129058838;-0.14278090000152587891 0.0090541364625096321106 -0.054729845374822616577 0.12808470427989959717 0.099854230880737304688 0.17280715703964233398 -0.12616863846778869629 0.081830970942974090576 -0.027371352538466453552 0.033435869961977005005 -0.11052092164754867554 -0.20868262648582458496 0.08817752450704574585 0.095676019787788391113 0.16882365942001342773 -0.084525972604751586914 0.1309699714183807373 -0.24147357046604156494 -0.19716063141822814941 0.072895362973213195801 0.2007401585578918457 -0.042018234729766845703 -0.15312021970748901367 0.021807756274938583374 -0.13910402357578277588 -0.12507365643978118896 0.21683454513549804688 0.19170607626438140869 0.27186977863311767578 -0.039719786494970321655 0.19113703072071075439 0.15548527240753173828 0.017275910824537277222 -0.005554004572331905365 0.20673523843288421631 0.24059388041496276855 -0.16493737697601318359 -0.02635097503662109375 -0.15516859292984008789 -0.2398853302001953125 -0.21490542590618133545 0.17081269621849060059 -0.047528095543384552002 -0.002139957621693611145 -0.15550729632377624512 -0.15672251582145690918 -0.12024580687284469604 -0.19663482904434204102 0.035218391567468643188 -0.045862983912229537964;0.012128647416830062866 -0.12857456505298614502 0.22645723819732666016 0.23194389045238494873 0.048836596310138702393 0.15714371204376220703 -0.040503323078155517578 0.11360592395067214966 -0.021546607837080955505 -0.060033846646547317505 -0.17241218686103820801 -0.19310840964317321777 0.25838369131088256836 -0.040238607674837112427 -0.18727326393127441406 -0.21147604286670684814 0.15961502492427825928 -0.0026290386449545621872 -0.057311844080686569214 0.29365277290344238281 0.018383324146270751953 0.25430029630661010742 0.17622900009155273438 -0.16261497139930725098 -0.10486689954996109009 0.1356595158576965332 -0.17426344752311706543 -0.14479877054691314697 -0.17227302491664886475 -0.14287108182907104492 0.22915762662887573242 -0.097126476466655731201 -0.21941496431827545166 0.19110991060733795166 0.079708807170391082764 0.16998207569122314453 -0.16201952099800109863 -0.082119613885879516602 -0.1465724259614944458 -0.0094979023560881614685 0.26229649782180786133 -0.042346533387899398804 -0.24812699854373931885 -0.19971744716167449951 -0.0074655287899076938629 0.09232184290885925293 -0.048440657556056976318 0.051256787031888961792 0.12920431792736053467 0.00060889299493283033371;0.17708060145378112793 -0.090861037373542785645 0.27852296829223632812 -0.051388695836067199707 -0.1109825819730758667 0.0706731453537940979 0.088413648307323455811 -0.015877116471529006958 -0.14260350167751312256 0.016468154266476631165 0.13407911360263824463 -0.16935816407203674316 0.23933939635753631592 0.089786954224109649658 -0.072103321552276611328 0.24138727784156799316 -0.23435834050178527832 0.18992903828620910645 0.16446208953857421875 0.010963402688503265381 0.095727421343326568604 0.048098627477884292603 8.7989217718131840229e-05 0.15241040289402008057 0.017591957002878189087 -0.035899437963962554932 -0.21198105812072753906 0.036212097853422164917 -0.19801378250122070312 -0.053147457540035247803 0.25371164083480834961 -0.051690250635147094727 -0.095297388732433319092 -0.14406530559062957764 -0.19612279534339904785 0.10655519366264343262 0.25964894890785217285 -0.0058153639547526836395 0.2445958554744720459 0.22674255073070526123 -0.20252625644207000732 0.079638347029685974121 0.076581560075283050537 -0.12937155365943908691 0.21078953146934509277 -0.068911507725715637207 0.072025820612907409668 0.13340967893600463867 -0.037197709083557128906 -0.10825274884700775146;-0.25587257742881774902 0.097727194428443908691 0.022070713341236114502 -0.13320341706275939941 -0.17853236198425292969 -0.037127103656530380249 -0.24041408300399780273 -0.2202917635440826416 0.20448802411556243896 -0.12248455733060836792 0.19210390746593475342 -0.070088475942611694336 0.17685823142528533936 -0.28405171632766723633 -0.080051548779010772705 0.087398193776607513428 -0.14274936914443969727 0.020576782524585723877 0.18955273926258087158 0.14012724161148071289 -0.11841549724340438843 0.044550150632858276367 0.23424372076988220215 -0.20276573300361633301 0.14113669097423553467 -0.049103040248155593872 -0.085365876555442810059 0.00081925652921199798584 0.24531640112400054932 -0.018230004236102104187 -0.0016245928127318620682 -0.017282798886299133301 -0.091452024877071380615 -0.039118394255638122559 0.17471498250961303711 -0.27935770153999328613 0.33128079771995544434 -0.20506046712398529053 0.20228230953216552734 0.021120335906744003296 -0.10823335498571395874 -0.054337780922651290894 -0.079856216907501220703 -0.064800366759300231934 -0.13283804059028625488 -0.24457708001136779785 -0.19054684042930603027 0.029467176645994186401 0.1301240772008895874 0.0025275184307247400284;0.10321661084890365601 -0.085260868072509765625 -0.36497324705123901367 -0.11006864160299301147 0.01240816805511713028 -0.055821880698204040527 -0.19025978446006774902 -0.11882951855659484863 0.15782205760478973389 0.11877422034740447998 0.054627910256385803223 -0.027926718816161155701 -0.14485482871532440186 0.20505817234516143799 0.031523872166872024536 0.15220563113689422607 -0.27233898639678955078 -0.06884460151195526123 -0.12583632767200469971 -0.01050509326159954071 -0.021538970991969108582 -0.19466531276702880859 -0.13775914907455444336 -0.01734030991792678833 0.010561035014688968658 -0.15530005097389221191 0.13322564959526062012 -0.14185950160026550293 -0.0065652448683977127075 0.077447623014450073242 0.18198683857917785645 -0.047759860754013061523 0.15671493113040924072 0.24051679670810699463 -0.16372841596603393555 -0.040542393922805786133 -0.085959494113922119141 0.15640729665756225586 0.051792856305837631226 0.0098088346421718597412 0.12528595328330993652 0.18168887495994567871 0.092693187296390533447 0.22628226876258850098 -0.11154954880475997925 0.18615162372589111328 -0.068761609494686126709 0.016987789422273635864 0.010484373196959495544 -0.14822997152805328369;-0.20207431912422180176 0.24317379295825958252 0.092611365020275115967 -0.034901510924100875854 0.039013519883155822754 0.018407680094242095947 -0.23677229881286621094 0.18382780253887176514 -0.14078387618064880371 0.10770814120769500732 0.22878879308700561523 0.050929941236972808838 0.2228768467903137207 0.13622225821018218994 0.15763564407825469971 0.13158605992794036865 0.0046711144968867301941 -0.10785979032516479492 -0.14126209914684295654 -0.069355405867099761963 0.13515195250511169434 -0.14442355930805206299 0.018352342769503593445 0.12780956923961639404 -0.00027125066844746470451 -0.22685787081718444824 0.077849298715591430664 -0.1797987818717956543 -0.039948962628841400146 0.11694043129682540894 -0.19715227186679840088 0.12467349320650100708 -0.16125333309173583984 -0.1791439056396484375 -0.25044807791709899902 -0.090800799429416656494 -0.16630898416042327881 0.15664002299308776855 -0.24908421933650970459 0.049151740968227386475 -0.19404686987400054932 0.14567501842975616455 0.15644194185733795166 -0.057991147041320800781 0.02872640267014503479 0.24454888701438903809 0.11595228314399719238 -0.21710015833377838135 0.15605397522449493408 0.096810653805732727051;0.16595919430255889893 0.06194245070219039917 0.22565898299217224121 -0.17515695095062255859 0.28879371285438537598 0.11317175626754760742 0.10390703380107879639 -0.231458321213722229 -0.19428813457489013672 -0.11505097150802612305 -0.1766935884952545166 0.10480272024869918823 -0.1665840446949005127 0.16076670587062835693 0.19349196553230285645 -0.2549145817756652832 0.14008992910385131836 -0.1251322329044342041 -0.052651178091764450073 -0.17131197452545166016 -0.10736334323883056641 -0.19917352497577667236 -0.082998692989349365234 -0.23909261822700500488 -0.042341671884059906006 0.22232221066951751709 0.28831535577774047852 0.2604713737964630127 -0.21034581959247589111 0.16202285885810852051 0.061926443129777908325 0.066898375749588012695 0.22710847854614257812 -0.12471447885036468506 -0.0054946336895227432251 -0.25797671079635620117 0.0014543649740517139435 0.094981685280799865723 -0.019127368927001953125 0.21683061122894287109 -0.063783884048461914062 -0.044180572032928466797 -0.20832702517509460449 0.12812121212482452393 -0.14618365466594696045 -0.11708088219165802002 0.083265073597431182861 -0.0091111147776246070862 0.026402326300740242004 -0.17960011959075927734;0.052797500044107437134 0.15092372894287109375 -0.11013837158679962158 0.1307773590087890625 0.031438011676073074341 0.026408107951283454895 0.03936368599534034729 -0.18864168226718902588 -0.038438051939010620117 -0.19992491602897644043 -0.095478348433971405029 -0.15673589706420898438 0.022609241306781768799 -0.11967795342206954956 0.22511823475360870361 -0.16863101720809936523 -0.19062949717044830322 0.10211135447025299072 0.26418164372444152832 0.21379362046718597412 0.14696085453033447266 -0.11219575256109237671 -0.19918087124824523926 0.17984770238399505615 0.073172800242900848389 0.15182678401470184326 0.11097520589828491211 -0.15679301321506500244 0.02750093117356300354 -0.11956185847520828247 -0.28774616122245788574 0.22455383837223052979 0.044407431036233901978 0.13121615350246429443 -0.25362363457679748535 -0.23825234174728393555 -0.15240032970905303955 -0.030507816001772880554 -0.035612348467111587524 -0.21617786586284637451 0.064662270247936248779 -0.10868583619594573975 -0.21845582127571105957 0.22365130484104156494 -0.13297681510448455811 0.20677189528942108154 0.077406972646713256836 -0.056695271283388137817 0.0015248059062287211418 -0.12015512585639953613;0.10854318737983703613 -0.25502881407737731934 0.045510441064834594727 0.17953960597515106201 0.26923212409019470215 -0.20637430250644683838 0.078697279095649719238 0.22463877499103546143 0.069823920726776123047 -0.046427272260189056396 -0.21458652615547180176 -0.21112294495105743408 0.16039724647998809814 -0.2462380826473236084 0.18046921491622924805 -0.10818246752023696899 -0.043060019612312316895 -0.091475084424018859863 0.22898228466510772705 -0.12308303266763687134 -0.081278741359710693359 -0.19838517904281616211 0.081759504973888397217 0.11947255581617355347 0.070616446435451507568 0.10678490251302719116 0.066950306296348571777 -0.070572681725025177002 -0.15219058096408843994 0.037842057645320892334 0.05930997803807258606 0.28087496757507324219 0.025066904723644256592 0.27581390738487243652 -0.28268915414810180664 -0.11477170884609222412 0.11881312727928161621 -0.02103079669177532196 -0.17813937366008758545 -0.10981483757495880127 0.045525737106800079346 -0.013674949295818805695 0.0023163030855357646942 0.25862386822700500488 -0.089851453900337219238 0.055495720356702804565 0.20766259729862213135 0.028874142095446586609 0.20160992443561553955 0.01343479938805103302;0.18004579842090606689 -0.25221398472785949707 0.086815252900123596191 -0.090079702436923980713 -0.088631667196750640869 -0.056786157190799713135 0.21366128325462341309 0.27279186248779296875 -0.0058956495486199855804 -0.090454831719398498535 0.2708918154239654541 -0.17139708995819091797 -0.065009608864784240723 -0.056646298617124557495 0.17487749457359313965 -0.15634164214134216309 0.034055083990097045898 0.062435120344161987305 0.27619701623916625977 0.20658724009990692139 -0.20920646190643310547 -0.055830854922533035278 0.21836522221565246582 -0.12569324672222137451 -0.0027526312042027711868 0.13851693272590637207 -0.21784211695194244385 0.0052117803134024143219 0.12925679981708526611 -0.2159684598445892334 0.14459973573684692383 -0.016058335080742835999 -0.27453267574310302734 0.16486813127994537354 0.1521987617015838623 -0.14112348854541778564 0.15661233663558959961 0.081456147134304046631 0.03538158908486366272 0.042658582329750061035 -0.11961117386817932129 -0.26843926310539245605 0.14786693453788757324 0.055454004555940628052 -0.17314043641090393066 0.1551373600959777832 0.0058507248759269714355 0.0095254378393292427063 -0.070421107113361358643 0.26848047971725463867;-0.25703221559524536133 0.058251790702342987061 0.21131499111652374268 0.17218966782093048096 0.19314058125019073486 -0.23208193480968475342 0.034252841025590896606 0.24032092094421386719 -0.1086510196328163147 -0.12623699009418487549 -0.04641149565577507019 0.074601978063583374023 0.1008189469575881958 0.055424045771360397339 0.032484795898199081421 -0.18408407270908355713 0.28642639517784118652 -0.058115527033805847168 -0.26356488466262817383 -0.050249077379703521729 0.26939186453819274902 -0.20316007733345031738 0.13770829141139984131 -0.09250812232494354248 -0.05278854072093963623 -0.070682488381862640381 -0.22518815100193023682 -0.28531101346015930176 0.13937117159366607666 -0.27156147360801696777 0.02350211702287197113 0.13523986935615539551 0.13933797180652618408 -0.064785405993461608887 0.12404066324234008789 -0.22968803346157073975 -0.18594162166118621826 0.26834669709205627441 -0.077700592577457427979 -0.10786969959735870361 -0.211437225341796875 0.22655606269836425781 0.21964618563652038574 0.0095322132110595703125 -0.20847396552562713623 0.011046168394386768341 0.070437051355838775635 0.19298483431339263916 -0.10101649165153503418 0.029292041435837745667;-0.25880372524261474609 -0.14051589369773864746 -0.095621339976787567139 0.14260140061378479004 -0.060762245208024978638 0.22959038615226745605 0.12773941457271575928 -0.043303273618221282959 0.15108576416969299316 -0.013895293697714805603 -0.25007477402687072754 0.066374056041240692139 -0.18375261127948760986 -0.27346640825271606445 -0.026370627805590629578 0.13504692912101745605 -0.16183212399482727051 0.24358108639717102051 0.054204661399126052856 -0.12218599021434783936 -0.0442808493971824646 0.10949193686246871948 0.26867404580116271973 -0.0031403009779751300812 0.2048050612211227417 0.10415922850370407104 0.061976321041584014893 -0.24731464684009552002 -0.22846502065658569336 0.1781597435474395752 0.078931443393230438232 0.19975928962230682373 0.013983589597046375275 -0.049005012959241867065 0.049730841070413589478 -0.27118396759033203125 0.056931503117084503174 0.12851622700691223145 0.12240148335695266724 -0.15215913951396942139 -0.23434489965438842773 -0.15739113092422485352 -0.13133321702480316162 0.13736259937286376953 0.11089973151683807373 -0.063222713768482208252 -0.15345294773578643799 -0.069294102489948272705 0.082173064351081848145 -0.13813492655754089355;-0.19066731631755828857 -0.10301217436790466309 0.27463859319686889648 0.045859877020120620728 -0.096499964594841003418 0.16886986792087554932 -0.078309319913387298584 0.028531480580568313599 -0.072301857173442840576 -0.21630267798900604248 0.090912438929080963135 -0.10772029310464859009 0.12960034608840942383 -0.074668616056442260742 -0.11464662104845046997 -0.077807784080505371094 -0.025867411866784095764 0.14829266071319580078 0.1197879984974861145 -0.2146609574556350708 -0.1173421517014503479 -0.056777004152536392212 0.2631092071533203125 0.17556981742382049561 -0.066504895687103271484 -0.14274968206882476807 0.09981943666934967041 -0.033221028745174407959 -0.018940092995762825012 -0.036807466298341751099 0.30533075332641601562 -0.11996799707412719727 -0.019879786297678947449 -0.19925279915332794189 0.090535543859004974365 0.16466076672077178955 0.044279891997575759888 0.2431621253490447998 0.1796960979700088501 -0.20023238658905029297 0.14182677865028381348 -0.18692098557949066162 0.069973625242710113525 -0.1290289461612701416 -0.23584157228469848633 0.15214252471923828125 0.18912886083126068115 0.23469235002994537354 0.21000993251800537109 0.1008410230278968811;-0.17743636667728424072 0.26730847358703613281 0.29873308539390563965 -0.01211516745388507843 -0.16891746222972869873 -0.16067782044410705566 0.069970361888408660889 -0.1176572069525718689 0.059064887464046478271 0.090753979980945587158 0.030182452872395515442 0.2078472524881362915 -0.11584392935037612915 -0.15809550881385803223 -0.22597718238830566406 0.2462847977876663208 0.041457924991846084595 0.15042936801910400391 -0.007496139034628868103 -0.24445359408855438232 -0.12671808898448944092 0.15322977304458618164 0.022759959101676940918 0.21335415542125701904 -0.27651435136795043945 -0.2079677879810333252 0.27684143185615539551 0.1927715986967086792 -0.0016095454338937997818 -0.19060616195201873779 -0.086026251316070556641 -0.18966446816921234131 0.076459251344203948975 -0.10038430988788604736 -0.14532259106636047363 0.11460205167531967163 -0.21102230250835418701 0.23653613030910491943 -0.072078287601470947266 0.01804332248866558075 -0.047265745699405670166 -0.1470028609037399292 0.11328980326652526855 -0.067777156829833984375 -0.18671347200870513916 0.15102343261241912842 0.12863448262214660645 -0.17098869383335113525 0.076024718582630157471 0.19920630753040313721;-0.15747694671154022217 -0.081761449575424194336 0.062540650367736816406 0.028264505788683891296 -0.097645469009876251221 -0.068285346031188964844 -0.099144592881202697754 -0.20682540535926818848 0.2118301689624786377 0.042233284562826156616 -0.0032722919713705778122 -0.11507625877857208252 0.17940855026245117188 0.062226597219705581665 -0.21289049088954925537 0.27734127640724182129 0.2044725269079208374 -0.12291263043880462646 0.20113526284694671631 -0.23591858148574829102 0.21580412983894348145 -0.15127950906753540039 -0.25092247128486633301 -0.21357521414756774902 0.074785083532333374023 0.26072922348976135254 0.10667052865028381348 -0.03420483320951461792 -0.084709636867046356201 0.050517071038484573364 0.22477392852306365967 0.14066866040229797363 -0.17145116627216339111 0.17593716084957122803 -0.21165706217288970947 -0.0076478356495499610901 0.086769282817840576172 0.13087140023708343506 -0.2319183647632598877 0.037031140178442001343 0.034076970070600509644 -0.028474498540163040161 -0.02541738562285900116 0.081976927816867828369 0.14691476523876190186 -0.015031314454972743988 -0.20341230928897857666 0.27084699273109436035 0.076438941061496734619 -0.19344720244407653809;0.048344038426876068115 -0.24777242541313171387 0.061721917241811752319 -0.039799857884645462036 0.062690258026123046875 -0.2407779991626739502 -0.051460463553667068481 -0.098576076328754425049 0.077413447201251983643 -0.18677219748497009277 -0.00077835517004132270813 -0.027082554996013641357 0.19746741652488708496 -0.010542253963649272919 -0.019494747743010520935 -0.19340629875659942627 -0.28571686148643493652 0.16029502451419830322 -0.0056307171471416950226 0.14814054965972900391 0.10264774411916732788 0.097436368465423583984 -0.045911006629467010498 -0.12268114835023880005 0.22607475519180297852 -0.16641321778297424316 -0.25820702314376831055 -0.23187966644763946533 -0.25566762685775756836 -0.14304609596729278564 0.24184837937355041504 0.1860389411449432373 0.16434869170188903809 -0.024561598896980285645 0.17694450914859771729 -0.16845874488353729248 0.081933796405792236328 0.037125535309314727783 0.20341590046882629395 0.062666244804859161377 -0.11257079988718032837 0.073358543217182159424 0.18877556920051574707 -0.022953707724809646606 0.025028953328728675842 -4.4806751247961074114e-05 -0.070909582078456878662 0.10824981331825256348 0.14585830271244049072 -0.097073569893836975098;-0.018369611352682113647 -0.2325601428747177124 -0.22680118680000305176 0.23156067728996276855 -0.14564821124076843262 0.20555333793163299561 0.21246145665645599365 -0.18855574727058410645 0.022809023037552833557 -0.0035250948276370763779 0.13569909334182739258 0.12454082071781158447 -0.075358465313911437988 0.089817717671394348145 -0.0048606516793370246887 0.051139596849679946899 0.05899211391806602478 -0.13076169788837432861 0.080726377665996551514 -0.20911644399166107178 -0.13550972938537597656 -0.22947807610034942627 -0.29030266404151916504 0.10647962242364883423 0.13890881836414337158 -0.1109556928277015686 -0.18276803195476531982 0.21501883864402770996 -0.050985246896743774414 -0.11904843896627426147 0.19145973026752471924 0.068820208311080932617 0.23778159916400909424 0.17472723126411437988 0.26131552457809448242 -0.16740667819976806641 -0.23136538267135620117 -0.16115781664848327637 0.23210985958576202393 0.17938837409019470215 0.20098255574703216553 0.017327664420008659363 0.21743479371070861816 -0.20551267266273498535 -0.27140775322914123535 0.23612393438816070557 0.19652414321899414062 0.23992446064949035645 -0.17274273931980133057 -0.13438892364501953125;-0.10163683444261550903 -0.15781120955944061279 -0.10802999138832092285 -0.12772336602210998535 -0.20979140698909759521 0.22216443717479705811 0.1665112227201461792 0.091772660613059997559 -0.0071105877868831157684 -0.27258065342903137207 0.24402260780334472656 -0.19195020198822021484 0.021431554108858108521 -0.10371849685907363892 -0.04429461061954498291 -0.27356201410293579102 0.075987868010997772217 0.14077632129192352295 0.15743896365165710449 -0.23509491980075836182 0.25933718681335449219 -0.2115275263786315918 0.081695996224880218506 0.16258035600185394287 -0.042847327888011932373 -0.2050310969352722168 -0.23887205123901367188 0.13285951316356658936 0.12736807763576507568 -0.038724474608898162842 -0.20716463029384613037 -0.22116930782794952393 -0.17588408291339874268 0.26515534520149230957 0.07878831028938293457 0.030242031440138816833 0.23259373009204864502 -0.17045508325099945068 0.052159711718559265137 -0.012741825543344020844 -0.11368446052074432373 0.016974559053778648376 -0.23917976021766662598 0.14323017001152038574 -0.25584700703620910645 -0.17799180746078491211 -0.072129637002944946289 0.004262727685272693634 -0.044397067278623580933 -0.048817239701747894287;0.095336556434631347656 0.018396288156509399414 0.17280700802803039551 0.1713631749153137207 -0.21139115095138549805 -0.20542265474796295166 0.21839930117130279541 -0.10112481564283370972 -0.0043116779997944831848 0.12050898373126983643 -0.16975589096546173096 0.29340821504592895508 0.27341943979263305664 0.1416336745023727417 0.10074432194232940674 -0.2070925980806350708 -0.11111520975828170776 -0.13230976462364196777 -0.20192566514015197754 -0.06406367570161819458 -0.22440029680728912354 -0.0075510665774345397949 -0.21861734986305236816 -0.16143624484539031982 -0.097932755947113037109 -0.16899944841861724854 0.083047620952129364014 0.067489713430404663086 -0.038130879402160644531 -0.080630578100681304932 0.24526600539684295654 -0.01611291058361530304 -0.18302018940448760986 -0.16680197417736053467 -0.21721598505973815918 -0.043737914413213729858 -0.17075824737548828125 -0.17550554871559143066 0.076452970504760742188 0.19082139432430267334 -0.016990024596452713013 0.027143545448780059814 -0.11924935132265090942 0.23684230446815490723 -0.19077689945697784424 -0.19343078136444091797 -0.15771974623203277588 0.038680497556924819946 0.040366668254137039185 0.2194318920373916626;0.059438597410917282104 -0.030883211642503738403 -0.17295838892459869385 -0.15738014876842498779 -0.088791877031326293945 0.059745997190475463867 0.13985657691955566406 0.15875330567359924316 -0.022867841646075248718 0.11799707263708114624 0.062835112214088439941 0.25568756461143493652 0.14577525854110717773 0.20719645917415618896 -0.26491662859916687012 -0.17780457437038421631 -0.20625980198383331299 0.26307919621467590332 -0.08661165088415145874 0.18250186741352081299 0.20705215632915496826 0.0042551485821604728699 -0.12053149193525314331 0.044026512652635574341 0.18944403529167175293 0.040703490376472473145 -0.081101983785629272461 -0.19206792116165161133 -0.048986371606588363647 -0.10091380029916763306 -0.28465038537979125977 -0.086889907717704772949 -0.16221691668033599854 0.18871337175369262695 -0.25759282708168029785 0.030613005161285400391 0.19414512813091278076 -0.17469353973865509033 -0.04061969369649887085 -0.19655732810497283936 0.12865170836448669434 0.016907036304473876953 0.019833853468298912048 0.18132819235324859619 0.015240520238876342773 0.063711635768413543701 0.061155620962381362915 -0.27108728885650634766 0.13690111041069030762 -0.21960087120532989502;-0.237615928053855896 0.01265695132315158844 -0.33554482460021972656 -0.26889076828956604004 -0.18690897524356842041 -0.040726754814386367798 0.062450785189867019653 -0.063870511949062347412 0.1382846534252166748 0.11718352138996124268 0.21709904074668884277 0.20644468069076538086 -0.0042838039807975292206 0.15267197787761688232 0.27154007554054260254 0.20349073410034179688 -0.11004730314016342163 0.038233965635299682617 0.2078021615743637085 0.15559683740139007568 -0.13371101021766662598 0.078241512179374694824 0.11763765662908554077 -0.031827300786972045898 0.1919860541820526123 0.066126003861427307129 -0.0086173648014664649963 0.0870588645339012146 0.062716960906982421875 -0.060087915509939193726 -0.24657954275608062744 0.16987004876136779785 -0.2153606712818145752 -0.13384225964546203613 0.14318664371967315674 -0.14862230420112609863 0.091357655823230743408 -0.013427615165710449219 0.019065106287598609924 -0.089149788022041320801 -0.07570829242467880249 0.071706280112266540527 -0.12668776512145996094 -0.061622284352779388428 -0.041035242378711700439 0.084903314709663391113 0.099458813667297363281 0.19596770405769348145 -0.023375570774078369141 0.25230330228805541992;-0.23364123702049255371 0.064105436205863952637 0.18870040774345397949 -0.15665610134601593018 0.24959176778793334961 -0.068798214197158813477 -0.21464811265468597412 0.17638638615608215332 -0.17518143355846405029 0.073390074074268341064 -0.20089857280254364014 -0.04828433692455291748 -0.056597083806991577148 -0.067490473389625549316 0.15657439827919006348 0.013168189674615859985 0.23590070009231567383 0.22523805499076843262 -0.077144004404544830322 -0.27637916803359985352 -0.24740840494632720947 -0.1094868779182434082 -0.10824471712112426758 -0.12440091371536254883 0.12538860738277435303 0.066698893904685974121 -0.047300614416599273682 -0.055446006357669830322 -0.037793729454278945923 0.18116383254528045654 0.16205747425556182861 -0.012569510377943515778 -0.21492612361907958984 -0.022553622722625732422 0.20335058867931365967 -0.19349606335163116455 0.18796634674072265625 0.098380796611309051514 -0.13408167660236358643 -0.19760799407958984375 0.22718781232833862305 0.20199780166149139404 -0.13646870851516723633 -0.059534013271331787109 -0.26747408509254455566 -0.19283939898014068604 0.18978795409202575684 0.22063229978084564209 -0.098295874893665313721 -0.15314006805419921875;-0.084056191146373748779 0.2015028148889541626 0.053808871656656265259 -0.19807197153568267822 0.090162344276905059814 -0.077441893517971038818 -0.085234232246875762939 -0.036383483558893203735 -0.1425838470458984375 0.20531736314296722412 0.10584472864866256714 -0.12530344724655151367 -0.16733199357986450195 0.15578436851501464844 -0.0015777965309098362923 -0.014461895450949668884 0.1185560077428817749 0.096938721835613250732 -0.024867657572031021118 0.08702529221773147583 -0.14825476706027984619 0.01532274298369884491 -0.26943024992942810059 -0.01061067730188369751 -0.046116948127746582031 -0.16424234211444854736 -0.21220342814922332764 -0.097198620438575744629 3.7449717638082802296e-06 0.038234163075685501099 -0.15028394758701324463 -0.03349545598030090332 -0.13317398726940155029 -0.25006148219108581543 0.24416056275367736816 0.18944017589092254639 0.017574207857251167297 0.23096773028373718262 0.24689179658889770508 -0.081550627946853637695 0.25563833117485046387 0.26000481843948364258 0.15481872856616973877 0.15247391164302825928 0.23616433143615722656 -0.1432739943265914917 -0.25055578351020812988 0.197757720947265625 -0.25480866432189941406 -0.060443259775638580322;-0.067936018109321594238 -0.19512319564819335938 -0.13005787134170532227 0.32011750340461730957 0.027175916358828544617 0.031014859676361083984 0.091895721852779388428 -0.013428014703094959259 0.18595650792121887207 0.090122118592262268066 -0.21438243985176086426 -0.18359895050525665283 0.065165139734745025635 0.074944153428077697754 -0.11596453189849853516 0.1307888329029083252 0.14527015388011932373 0.13893520832061767578 0.04165365174412727356 0.16837592422962188721 -0.10206323117017745972 -0.11458081752061843872 -0.19641533493995666504 0.073166862130165100098 0.2715422213077545166 -0.047666188329458236694 0.14351533353328704834 0.13746792078018188477 -0.061871260404586791992 -0.14532525837421417236 0.19117875397205352783 0.058608297258615493774 -0.067562848329544067383 0.20936819911003112793 -0.020195372402667999268 0.25755992531776428223 -0.1312951892614364624 0.12301240861415863037 -0.063253276050090789795 -0.20443335175514221191 -0.0080135464668273925781 -0.020789863541722297668 -0.19869793951511383057 0.056864317506551742554 0.04939947277307510376 -0.049057353287935256958 0.09214642643928527832 0.2274989783763885498 -0.054488159716129302979 -0.03739695623517036438;0.0094123929738998413086 0.0029306432697921991348 0.10401670634746551514 0.25834566354751586914 -0.054264578968286514282 -0.24133498966693878174 -0.060646001249551773071 0.22077101469039916992 -0.057764083147048950195 -0.10997712612152099609 0.05252489820122718811 0.19839385151863098145 0.18314532935619354248 -0.23381365835666656494 0.11964124441146850586 0.035078369081020355225 0.17677301168441772461 -0.14147563278675079346 -0.28774860501289367676 -0.054945886135101318359 0.14890050888061523438 -0.18298923969268798828 0.13694465160369873047 -0.11112878471612930298 -0.11956850439310073853 0.2384589463472366333 0.17603123188018798828 -0.11652013659477233887 0.025419017300009727478 0.062776960432529449463 0.20667906105518341064 0.025506924837827682495 -0.18728618323802947998 -0.24580138921737670898 -0.24254284799098968506 -0.2347301095724105835 -0.070364482700824737549 0.25149422883987426758 -0.11768867075443267822 -0.1235968172550201416 0.25683897733688354492 -0.23552973568439483643 -0.18810482323169708252 0.061790920794010162354 0.10486613959074020386 0.23231115937232971191 -0.11768676340579986572 0.28490996360778808594 0.20166505873203277588 -0.0039293644949793815613];

% Layer 3
b3 = [0.0019513334846124053001;-0.012212756089866161346];
LW3_2 = [-0.31579118967056274414 -0.23406124114990234375 0.22618491947650909424 0.29549938440322875977 -0.20759430527687072754 -0.055393546819686889648 0.2602004706859588623 -0.27420699596405029297 0.32508528232574462891 0.026859577745199203491 0.32855996489524841309 0.14199052751064300537 0.089936785399913787842 -0.35086318850517272949 0.18846943974494934082 -0.28879916667938232422 -0.18683917820453643799 -0.10559496283531188965 -0.19763684272766113281 0.092047467827796936035 -0.03606060519814491272 0.13450293242931365967 -0.23171462118625640869 -0.30154499411582946777 0.10465375334024429321 -0.26292508840560913086 0.11941698193550109863 0.028645226731896400452 0.12079199403524398804 0.084206297993659973145;-0.15698277950286865234 -0.011679598130285739899 0.0096657741814851760864 0.080931775271892547607 0.030157739296555519104 0.23737932741641998291 -0.46168524026870727539 -0.3275197446346282959 -0.10852777212858200073 -0.26377859711647033691 -0.093971125781536102295 -0.26226690411567687988 0.25536483526229858398 -0.31260961294174194336 0.18894840776920318604 -0.11891797930002212524 -0.15471178293228149414 0.092880763113498687744 -0.12314260751008987427 0.29254543781280517578 0.38375896215438842773 -0.18181714415550231934 -0.36152219772338867188 0.011481156572699546814 -0.021402645856142044067 -0.25342324376106262207 0.24325762689113616943 -0.27616837620735168457 -0.10054065287113189697 -0.025876231491565704346];

% ===== SIMULATION ========

% Format Input Arguments
isCellX = iscell(X);
if ~isCellX
  X = {X};
end

% Dimensions
TS = size(X,2); % timesteps
if ~isempty(X)
  Q = size(X{1},2); % samples/series
else
  Q = 0;
end

% Allocate Outputs
Y = cell(1,TS);

% Time loop
for ts=1:TS

    % Input 1
    Xp1 = mapminmax_apply(X{1,ts},x1_step1);
    
    % Layer 1
    a1 = tansig_apply(repmat(b1,1,Q) + IW1_1*Xp1);
    
    % Layer 2
    a2 = tansig_apply(repmat(b2,1,Q) + LW2_1*a1);
    
    % Layer 3
    a3 = repmat(b3,1,Q) + LW3_2*a2;
    
    % Output 1
    Y{1,ts} = a3;
end

% Final Delay States
Xf = cell(1,0);
Af = cell(3,0);

% Format Output Arguments
if ~isCellX
  Y = cell2mat(Y);
end
end

% ===== MODULE FUNCTIONS ========

% Map Minimum and Maximum Input Processing Function
function y = mapminmax_apply(x,settings)
  y = bsxfun(@minus,x,settings.xoffset);
  y = bsxfun(@times,y,settings.gain);
  y = bsxfun(@plus,y,settings.ymin);
end

% Sigmoid Symmetric Transfer Function
function a = tansig_apply(n,~)
  a = 2 ./ (1 + exp(-2*n)) - 1;
end
