function [y1] = nnet_function(x1)
%NNET_FUNCTION neural network simulation function.
%
% Auto-generated by MATLAB, 25-Nov-2020 01:52:40.
% 
% [y1] = nnet_function(x1) takes these arguments:
%   x = 15xQ matrix, input #1
% and returns:
%   y = 2xQ matrix, output #1
% where Q is the number of samples.

%#ok<*RPMT0>

% ===== NEURAL NETWORK CONSTANTS =====

% Input 1
x1_step1.xoffset = [0.200011437481734;0.000287032703115897;0;0;0;0;-1.30256813748516e-05;0;-0.00594070155344859;-1.30256813748516e-05;0;-0.00594070155344859;-1.30256813748516e-05;0;-0.00594070155344859];
x1_step1.gain = [20.6580156213491;20.1115684549846;6.73795064545574;20.0536867183442;6.73795064545574;20.0536867183442;37249.8760295359;5.75597622331691;17.0020476160425;37249.8760295359;5.75597622331691;17.0020476160425;37249.8760295359;5.75597622331691;17.0020476160425];
x1_step1.ymin = -1;

% Layer 1
b1 = [-1.8171580511732570162;1.7429883347988381903;-1.6688186184244198085;-1.5946489020500009826;-1.5204791856755823787;1.4463094693011637748;1.3721397529267449489;-1.297970036552326567;1.2238003201779077411;1.1496306038034891372;1.0754608874290705334;-1.0012911710546517075;0.9271214546802332146;-0.85295173830581461072;-0.7787820219313957848;0.70461230555697718092;0.63044258918255857704;0.55627287280813986214;-0.48210315643372125827;-0.40793344005930259888;-0.33376372368488393949;0.2595940073104652801;-0.18542429093604664847;-0.1112545745616279752;0.037084858187209322755;-0.037084858187209322755;-0.1112545745616279752;0.18542429093604664847;0.2595940073104652801;-0.33376372368488393949;-0.40793344005930259888;-0.48210315643372125827;-0.55627287280813986214;-0.63044258918255857704;-0.70461230555697718092;0.7787820219313957848;0.85295173830581461072;0.9271214546802332146;-1.0012911710546517075;-1.0754608874290705334;1.1496306038034891372;1.2238003201779077411;-1.297970036552326567;1.3721397529267449489;1.4463094693011637748;1.5204791856755823787;1.5946489020500009826;-1.6688186184244198085;-1.7429883347988381903;-1.8171580511732570162];
IW1_1 = [-0.092593960464000701904 0.048403095453977584839 -0.017320426180958747864 -0.19001133739948272705 0.24166131019592285156 -0.24100570380687713623 0.2563031613826751709 0.20260146260261535645 0.18475781381130218506 -0.2172196805477142334 -0.055384427309036254883 0.3026809990406036377 0.16945637762546539307 -0.27497047185897827148 0.23721708357334136963;0.19155108928680419922 -0.029381543397903442383 -0.2734921574592590332 0.18024764955043792725 -0.064701512455940246582 0.18722267448902130127 0.21676470339298248291 -0.070450216531753540039 -0.036530286073684692383 0.28896820545196533203 0.16510911285877227783 0.21836958825588226318 0.24078580737113952637 -0.019089015200734138489 0.18825797736644744873;-0.25778663158416748047 0.32349553704261779785 -0.27752780914306640625 -0.18477262556552886963 -0.20342290401458740234 0.22960178554058074951 -0.28074651956558227539 -0.018589371815323829651 0.093360774219036102295 -0.14701992273330688477 -0.043025992810726165771 -0.25839340686798095703 -0.30179715156555175781 -0.29274597764015197754 0.26071235537528991699;0.15301142632961273193 0.19382999837398529053 -0.15295624732971191406 -0.0977420806884765625 0.027626911178231239319 -0.10076548159122467041 -0.19592593610286712646 -0.094712533056735992432 -0.02179959416389465332 -0.28993678092956542969 0.19677950441837310791 -0.096095770597457885742 0.18274225294589996338 -0.24821740388870239258 -0.25409516692161560059;-0.12129294872283935547 0.079037435352802276611 0.23500151932239532471 0.044436793774366378784 -0.24016623198986053467 -0.005912596825510263443 -0.22750817239284515381 -0.028235383331775665283 0.2375049591064453125 -0.28615194559097290039 -0.21035540103912353516 0.087647512555122375488 -0.17174421250820159912 0.27013090252876281738 -0.20395347476005554199;0.13027016818523406982 -0.2222255021333694458 -0.14389500021934509277 -0.29350149631500244141 0.24304893612861633301 -0.14187929034233093262 0.0026346775703132152557 0.17019009590148925781 0.20054408907890319824 -0.15381352603435516357 -0.27244555950164794922 0.24242337048053741455 -0.11251673847436904907 0.23225794732570648193 -0.2876612544059753418;-0.28646489977836608887 -0.012337492778897285461 0.092372901737689971924 0.23202371597290039062 0.026746314018964767456 -0.21172715723514556885 -0.14278167486190795898 0.030174560844898223877 -0.15373088419437408447 0.19328443706035614014 -0.061077855527400970459 0.13499279320240020752 0.19996149837970733643 0.25637003779411315918 0.10042759031057357788;0.25331541895866394043 -0.2517274022102355957 -0.29676684737205505371 0.19137296080589294434 -0.17638990283012390137 0.15955923497676849365 -0.18946826457977294922 0.27133110165596008301 -0.084349706768989562988 0.10993970185518264771 0.063807718455791473389 -0.017494851723313331604 0.17554634809494018555 -0.25713482499122619629 0.22938869893550872803;-0.014907677657902240753 -0.27315673232078552246 0.070414029061794281006 0.19633349776268005371 0.18268804252147674561 -0.074648015201091766357 0.029603080824017524719 0.090904213488101959229 -0.26493000984191894531 0.066878274083137512207 0.0012472347589209675789 -0.14626200497150421143 0.066629372537136077881 0.0085818879306316375732 -0.21908722817897796631;-0.10152871161699295044 0.11028718948364257812 0.049981229007244110107 -0.31095391511917114258 0.14478376507759094238 -0.099748112261295318604 0.070115081965923309326 -0.095129385590553283691 -0.28645032644271850586 -0.077918924391269683838 0.050233177840709686279 0.16155315935611724854 0.18882426619529724121 0.20987220108509063721 0.083649292588233947754;-0.1628329157829284668 -0.27733811736106872559 -0.078361019492149353027 0.27999019622802734375 0.11006825417280197144 -0.14383734762668609619 -0.245352134108543396 -0.14541675150394439697 0.19879430532455444336 0.099021360278129577637 0.19301433861255645752 0.090601928532123565674 -0.14901743829250335693 -0.15393096208572387695 -0.026073774322867393494;-0.27639359235763549805 0.26855817437171936035 -0.18088959157466888428 0.076924383640289306641 0.12205464392900466919 0.053950358182191848755 -0.1495806276798248291 0.19208306074142456055 0.069973804056644439697 -0.15664720535278320312 -0.0033776082564145326614 0.30817914009094238281 -0.02887533232569694519 -0.16012527048587799072 0.00070270575815811753273;0.15743270516395568848 -0.044663388282060623169 0.20717933773994445801 -0.045841939747333526611 0.17869563400745391846 0.14662741124629974365 0.28276848793029785156 0.019714754074811935425 0.25476574897766113281 0.033887274563312530518 0.11885555088520050049 0.17102189362049102783 -0.047923810780048370361 0.19890385866165161133 0.12439572811126708984;-0.24801439046859741211 -0.11269677430391311646 0.17983281612396240234 -0.0054503194987773895264 -0.062840767204761505127 0.20295047760009765625 -0.24160780012607574463 0.025124039500951766968 -0.19593085348606109619 0.026935316622257232666 -0.29810783267021179199 0.2439171522855758667 -0.019671501591801643372 -0.069947570562362670898 0.004745733458548784256;0.19261680543422698975 -0.24747787415981292725 0.1622247844934463501 -0.15067441761493682861 0.11408784985542297363 0.19503097236156463623 -0.22748529911041259766 0.1726417839527130127 0.033469412475824356079 -0.12129413336515426636 0.13974371552467346191 -0.12224335223436355591 0.04611225426197052002 -0.07362998276948928833 -0.011017126962542533875;0.034025318920612335205 -0.055755041539669036865 -0.27994307875633239746 0.25773510336875915527 0.2225389629602432251 0.24827024340629577637 -0.27650901675224304199 -0.27216354012489318848 0.27206441760063171387 0.19591340422630310059 -0.15630352497100830078 -0.10244153439998626709 -0.019295249134302139282 -0.18995970487594604492 -0.059292595833539962769;-0.25932189822196960449 0.15571807324886322021 0.13505995273590087891 -0.19905833899974822998 0.16725277900695800781 0.22224439680576324463 -0.077920898795127868652 0.092636138200759887695 0.016047637909650802612 0.18004150688648223877 0.29815107583999633789 -0.055802732706069946289 -0.045529082417488098145 -0.22181075811386108398 -0.18558827042579650879;0.20667587220668792725 0.30371278524398803711 -0.11571236699819564819 -0.018619293347001075745 0.029648108407855033875 0.31312218308448791504 -0.22594843804836273193 0.2987537384033203125 -0.062249120324850082397 -0.023021517321467399597 -0.031987451016902923584 -0.0013339716242626309395 -0.14166201651096343994 0.28444439172744750977 0.28434300422668457031;0.26853179931640625 -0.11464229226112365723 -0.17539361119270324707 -0.2556940913200378418 0.29659771919250488281 0.17505113780498504639 -0.055735025554895401001 0.22110466659069061279 0.21347707509994506836 0.14819596707820892334 -0.10713171958923339844 0.02854234352707862854 0.0054700179025530815125 0.12184438109397888184 0.10131511092185974121;0.072281531989574432373 -0.27685883641242980957 0.055602136999368667603 0.3151722252368927002 -0.11583991348743438721 -0.098258890211582183838 0.22964659333229064941 -0.28711462020874023438 -0.077133789658546447754 0.18736203014850616455 0.29778397083282470703 0.071437411010265350342 0.28949999809265136719 -0.16833469271659851074 0.25218275189399719238;0.11765282601118087769 -0.27555537223815917969 -0.28899937868118286133 -0.019242126494646072388 0.012850203551352024078 -0.09242785722017288208 -0.014332095161080360413 0.12812641263008117676 0.054339319467544555664 0.12930274009704589844 0.063620552420616149902 0.23801042139530181885 0.10998821258544921875 0.11240851879119873047 0.018446579575538635254;-0.2867037355899810791 -0.20334093272686004639 -0.26250788569450378418 -0.2558695673942565918 -0.26975461840629577637 0.095998473465442657471 0.085559420287609100342 0.16323804855346679688 -0.20865626633167266846 -0.23906062543392181396 -0.26016759872436523438 0.0079788845032453536987 -0.097176082432270050049 -0.2015542834997177124 -0.25545471906661987305;-0.15134502947330474854 -0.090776585042476654053 -0.076676160097122192383 0.082835316658020019531 -0.20321460068225860596 -0.0051092770881950855255 0.24916322529315948486 0.00090946425916627049446 -0.078247778117656707764 -0.137966156005859375 0.073547512292861938477 -0.24604627490043640137 -0.18916706740856170654 0.12510359287261962891 -0.21082182228565216064;0.069280937314033508301 0.26951262354850769043 -0.22998510301113128662 0.087149135768413543701 0.018586551770567893982 0.28506588935852050781 -0.00012189630069769918919 0.15476486086845397949 -0.31963121891021728516 0.26821845769882202148 -0.17455136775970458984 -0.0092870388180017471313 0.17629517614841461182 0.17322465777397155762 0.18956664204597473145;0.036391250789165496826 -0.030057176947593688965 -0.27952340245246887207 0.24513588845729827881 0.025305921211838722229 -0.18598422408103942871 -0.10440459847450256348 -0.17138648033142089844 0.29050514101982116699 0.22761563956737518311 -0.18786720931529998779 0.17169301211833953857 0.17186158895492553711 -0.15183123946189880371 0.12742921710014343262;0.23135766386985778809 -0.1284793466329574585 -0.23113195598125457764 0.17476855218410491943 0.014063102193176746368 0.073454290628433227539 -0.26271918416023254395 -0.21447953581809997559 0.063406042754650115967 -0.13039734959602355957 0.047939237207174301147 0.28587049245834350586 0.051965899765491485596 0.018861474469304084778 -0.020272230729460716248;0.28368636965751647949 0.22079904377460479736 -0.058304239064455032349 -0.25260278582572937012 -0.14762341976165771484 0.29165297746658325195 -0.2504011988639831543 -0.25046297907829284668 0.28246665000915527344 -0.036796826869249343872 0.21273705363273620605 -0.17774181067943572998 -0.01514660567045211792 0.11223006248474121094 -0.0041247876361012458801;0.054159536957740783691 -0.20266461372375488281 0.30490377545356750488 -0.20523406565189361572 0.049324043095111846924 0.21469183266162872314 -0.1994009166955947876 0.19081464409828186035 -0.11753154546022415161 -0.12783785164356231689 -0.042652521282434463501 0.066792257130146026611 0.18186897039413452148 -0.2750937342643737793 0.025601997971534729004;0.091859161853790283203 0.32259657979011535645 -0.077957473695278167725 -0.24066728353500366211 0.1320483088493347168 -0.14638777077198028564 -0.24980916082859039307 0.25902658700942993164 0.092153951525688171387 0.017434554174542427063 0.19967968761920928955 0.2245661616325378418 0.019649181514978408813 -0.085635267198085784912 0.1289742887020111084;0.045303653925657272339 0.042658928781747817993 -0.22521840035915374756 0.13815613090991973877 -0.078518390655517578125 0.080497637391090393066 -0.1468486487865447998 -0.032160636037588119507 -0.26728880405426025391 0.018461430445313453674 0.27170640230178833008 0.039910241961479187012 -0.013065172359347343445 -0.034063879400491714478 0.24410183727741241455;0.0069125732406973838806 0.2601261436939239502 0.15272040665149688721 0.12354258447885513306 0.11382957547903060913 -0.20081259310245513916 0.059059362858533859253 -0.16474445164203643799 -0.10350356251001358032 -0.11365561932325363159 -0.13147443532943725586 0.22969773411750793457 0.19237901270389556885 0.045995734632015228271 -0.13401487469673156738;-0.062886379659175872803 -0.091784432530403137207 -0.15512494742870330811 0.19370804727077484131 -0.26903173327445983887 0.080326728522777557373 0.037012223154306411743 0.10910148918628692627 -0.10017003118991851807 -0.18341471254825592041 0.28623023629188537598 -0.27331870794296264648 -0.2804978787899017334 0.044732708483934402466 0.0192214231938123703;-0.24580775201320648193 0.2455466538667678833 0.033732138574123382568 -0.16595241427421569824 -0.045868329703807830811 -0.30416378378868103027 -0.2564213871955871582 0.11570189893245697021 0.21624162793159484863 -0.067271664738655090332 0.019012831151485443115 -0.031163770705461502075 -0.0073274853639304637909 0.13812142610549926758 0.1499474942684173584;-0.15224896371364593506 -0.1232589036226272583 0.28908851742744445801 0.2094764411449432373 0.20432864129543304443 -0.17788168787956237793 -0.015741614624857902527 -0.034186992794275283813 -0.18886895477771759033 0.0020722178742289543152 -0.16216254234313964844 0.16335055232048034668 0.18590256571769714355 -0.16331192851066589355 0.096803098917007446289;-0.13613671064376831055 0.12361228466033935547 0.22274795174598693848 -0.2977257072925567627 -0.035587895661592483521 0.080493286252021789551 0.064600765705108642578 0.12970732152462005615 0.099655829370021820068 0.063716523349285125732 0.008634631521999835968 0.037641424685716629028 0.15466329455375671387 -0.097267873585224151611 -0.23852428793907165527;-0.11949650198221206665 -0.25466486811637878418 -0.24448755383491516113 0.14108164608478546143 0.13042296469211578369 0.21094699203968048096 0.073364488780498504639 -0.21137595176696777344 -0.10053166002035140991 0.010815736837685108185 0.23922176659107208252 -0.2130950242280960083 -0.11508069932460784912 -0.21075047552585601807 0.0048253932036459445953;-0.26986539363861083984 0.24852482974529266357 -0.27561587095260620117 0.23162367939949035645 0.12464214861392974854 -0.24031503498554229736 -0.19423799216747283936 0.11027079075574874878 0.053703434765338897705 -0.0018786782165989279747 -0.24428161978721618652 0.15373419225215911865 0.29759198427200317383 -0.24892252683639526367 0.15612214803695678711;0.2501048743724822998 -0.12705613672733306885 -0.0059274514205753803253 -0.052607174962759017944 -0.19044616818428039551 -0.24320298433303833008 0.10001217573881149292 -0.14736028015613555908 0.14025512337684631348 -0.16864019632339477539 0.21087646484375 0.1687125861644744873 -0.054476920515298843384 -0.15312418341636657715 -0.14078377187252044678;-0.22940371930599212646 -0.20971563458442687988 -0.15203003585338592529 -0.16401326656341552734 -0.042039681226015090942 -0.12246919423341751099 -0.25338375568389892578 -0.261440277099609375 0.072052307426929473877 0.16588380932807922363 -0.19852313399314880371 -0.070082083344459533691 -0.035756252706050872803 -0.18319863080978393555 0.28288307785987854004;0.11156750470399856567 0.28737547993659973145 -0.18493314087390899658 -0.20441253483295440674 0.030963610857725143433 -0.022391993552446365356 -0.067197173833847045898 -0.23600775003433227539 0.13694979250431060791 -0.26709520816802978516 0.12474162876605987549 -0.15489044785499572754 0.20244652032852172852 -0.26507112383842468262 0.16802780330181121826;0.23441413044929504395 0.14685575664043426514 0.29335364699363708496 -0.20246478915214538574 -0.13735480606555938721 -0.22170728445053100586 0.17912928760051727295 -0.12554627656936645508 0.012704223394393920898 -0.012901014648377895355 0.10925236344337463379 0.21601794660091400146 0.25168079137802124023 0.2361936420202255249 0.29103255271911621094;0.23185768723487854004 -0.25766223669052124023 0.19109350442886352539 0.19557373225688934326 -0.028448998928070068359 0.14273504912853240967 0.22196629643440246582 0.056692674756050109863 0.18978171050548553467 -0.27368378639221191406 -0.28424617648124694824 0.26390019059181213379 0.22913502156734466553 -0.29337218403816223145 -0.18907895684242248535;0.032646402716636657715 -0.079929135739803314209 0.16584637761116027832 -0.10610590130090713501 -0.25167709589004516602 0.012572370469570159912 -0.16594538092613220215 0.23562720417976379395 0.16235528886318206787 0.23224243521690368652 0.1447391808032989502 -0.059331122785806655884 -0.29458585381507873535 -0.2112245410680770874 0.030065728351473808289;-0.16979506611824035645 0.14018744230270385742 -0.089348718523979187012 -0.2950159609317779541 0.0098149180412292480469 -0.14534658193588256836 0.11913207173347473145 0.23798872530460357666 -0.07108166813850402832 0.14103567600250244141 0.048404589295387268066 -0.012797875329852104187 0.017621619626879692078 0.19170026481151580811 0.24448271095752716064;-0.15082971751689910889 0.23392082750797271729 -0.11763819307088851929 0.19390079379081726074 -0.026661129668354988098 0.057182084769010543823 -0.24561864137649536133 0.28181421756744384766 -0.2692394554615020752 0.061145070940256118774 0.15391980111598968506 0.25067597627639770508 0.21896065771579742432 0.10788065940141677856 0.030073506757616996765;-0.085386417806148529053 -0.02622608281672000885 -0.082806199789047241211 -0.014556267298758029938 -0.030065717175602912903 0.17181479930877685547 -0.19932420551776885986 0.12645332515239715576 -0.0055667390115559101105 0.091238394379615783691 0.0067901648581027984619 0.28367441892623901367 -0.20395225286483764648 0.14711122214794158936 0.12403132766485214233;-0.048702042549848556519 -0.13853199779987335205 0.18889488279819488525 -0.050843689590692520142 0.059284489601850509644 0.15348710119724273682 0.23291221261024475098 -0.03931315988302230835 -0.28983333706855773926 -0.27151703834533691406 0.068100914359092712402 -0.13647100329399108887 0.26367849111557006836 -0.14068505167961120605 0.027250852435827255249;0.2742570340633392334 -0.19846042990684509277 0.21672141551971435547 0.20107728242874145508 0.082759737968444824219 0.17057695984840393066 0.050602253526449203491 0.076486311852931976318 0.027900232002139091492 -0.19664396345615386963 0.022837137803435325623 0.062070567160844802856 0.047918692231178283691 0.2893810570240020752 -0.12198549509048461914;-0.27605363726615905762 0.21415840089321136475 -0.10689983516931533813 0.23169556260108947754 0.074818193912506103516 0.24389778077602386475 -0.11630341410636901855 -0.080268383026123046875 0.2773768305778503418 0.1202014237642288208 -0.26388961076736450195 -0.058360889554023742676 0.25870287418365478516 -0.20850020647048950195 0.14036859571933746338;-0.11213663965463638306 -0.067195102572441101074 0.22414040565490722656 -0.0042085405439138412476 0.023402798920869827271 -0.30917412042617797852 0.23403108119964599609 -0.15078899264335632324 0.25094622373580932617 -0.1863810122013092041 0.030295435339212417603 -0.092628113925457000732 -0.11955931782722473145 0.068031050264835357666 0.19162522256374359131];

% Layer 2
b2 = [0.97782537884631581804;0.52398259536596003549];
LW2_1 = [0.18702065944671630859 -0.0026180855929851531982 0.27888214588165283203 -0.26376050710678100586 0.074868135154247283936 -0.13725641369819641113 -0.36312982439994812012 -0.1851857304573059082 0.21908277273178100586 -0.020447317510843276978 -0.15763819217681884766 -0.29591414332389831543 -0.033690236508846282959 0.25381889939308166504 0.023064829409122467041 -0.2586758732795715332 -0.0020736393053084611893 0.2998854219913482666 0.32134899497032165527 -0.29464194178581237793 -0.2053457796573638916 0.29928702116012573242 0.18279729783535003662 -0.084393024444580078125 0.19877806305885314941 -0.21762992441654205322 0.123529091477394104 0.3152593076229095459 0.16514185070991516113 0.09132938086986541748 0.013846520334482192993 -0.25188243389129638672 0.16636037826538085938 0.20386849343776702881 0.25409564375877380371 0.0082457372918725013733 -0.029014835134148597717 -0.15339447557926177979 -0.092617034912109375 0.046345643699169158936 -0.18964855372905731201 -0.11312191188335418701 0.2386655658483505249 -0.22816732525825500488 0.23500022292137145996 0.23643144965171813965 -0.13729962706565856934 -0.14488290250301361084 0.015261700376868247986 0.2120939791202545166;-0.15516504645347595215 -0.17902576923370361328 0.08806263655424118042 -0.027704648673534393311 -0.15905982255935668945 -0.10175734758377075195 -0.11580039560794830322 0.18871212005615234375 -0.14200840890407562256 -0.13886746764183044434 0.22491344809532165527 -0.0061493334360420703888 0.21648809313774108887 0.14964234828948974609 0.29929900169372558594 -0.3056392967700958252 0.3283583223819732666 0.16512601077556610107 -0.073319971561431884766 0.10103806853294372559 -0.15790295600891113281 0.30627283453941345215 -0.29574152827262878418 0.023003522306680679321 -0.25161048769950866699 0.094660378992557525635 0.01340227760374546051 0.047626003623008728027 0.18962949514389038086 -0.16104270517826080322 -0.32139688730239868164 0.35881647467613220215 -0.27496609091758728027 0.2252286076545715332 -0.32421481609344482422 -0.11211052536964416504 -0.090451754629611968994 0.06816562265157699585 0.26997879147529602051 0.21573197841644287109 0.17236867547035217285 0.024250339716672897339 0.19322799146175384521 -0.0020546354353427886963 -0.11507537215948104858 -0.23969250917434692383 -0.25262534618377685547 0.057451646775007247925 0.18258231878280639648 -0.30350011587142944336];

% Output 1
y1_step1.ymin = -1;
y1_step1.gain = [49.9650705341354;114.346721306337];
y1_step1.xoffset = [-0.029682615757194;-0.00751743477949805];

% ===== SIMULATION ========

% Dimensions
Q = size(x1,2); % samples

% Input 1
xp1 = mapminmax_apply(x1,x1_step1);

% Layer 1
a1 = tansig_apply(repmat(b1,1,Q) + IW1_1*xp1);

% Layer 2
a2 = repmat(b2,1,Q) + LW2_1*a1;

% Output 1
y1 = mapminmax_reverse(a2,y1_step1);
end

% ===== MODULE FUNCTIONS ========

% Map Minimum and Maximum Input Processing Function
function y = mapminmax_apply(x,settings)
  y = bsxfun(@minus,x,settings.xoffset);
  y = bsxfun(@times,y,settings.gain);
  y = bsxfun(@plus,y,settings.ymin);
end

% Sigmoid Symmetric Transfer Function
function a = tansig_apply(n,~)
  a = 2 ./ (1 + exp(-2*n)) - 1;
end

% Map Minimum and Maximum Output Reverse-Processing Function
function x = mapminmax_reverse(y,settings)
  x = bsxfun(@minus,y,settings.ymin);
  x = bsxfun(@rdivide,x,settings.gain);
  x = bsxfun(@plus,x,settings.xoffset);
end
